{"learner":{"attributes":{"best_iteration":"999","best_ntree_limit":"1000","scikit_learn":"{\"use_label_encoder\": true, \"n_estimators\": 1000, \"objective\": \"binary:logistic\", \"max_depth\": 10, \"learning_rate\": 0.05, \"verbosity\": null, \"booster\": null, \"tree_method\": null, \"gamma\": null, \"min_child_weight\": null, \"max_delta_step\": null, \"subsample\": null, \"colsample_bytree\": 0.7, \"colsample_bylevel\": null, \"colsample_bynode\": null, \"reg_alpha\": null, \"reg_lambda\": null, \"scale_pos_weight\": null, \"base_score\": null, \"missing\": NaN, \"num_parallel_tree\": null, \"random_state\": null, \"n_jobs\": null, \"monotone_constraints\": null, \"interaction_constraints\": null, \"importance_type\": null, \"gpu_id\": null, \"validate_parameters\": null, \"predictor\": null, \"enable_categorical\": false, \"classes_\": [0, 1], \"n_classes_\": 2, \"_le\": {\"classes_\": [0, 1]}, \"_estimator_type\": \"classifier\"}"},"feature_names":[],"feature_types":[],"gradient_booster":{"model":{"gbtree_model_param":{"num_trees":"1000","size_leaf_vector":"0"},"tree_info":[0,0,0,0,0,0,0,0,0,0,0,0,0,0,0,0,0,0,0,0,0,0,0,0,0,0,0,0,0,0,0,0,0,0,0,0,0,0,0,0,0,0,0,0,0,0,0,0,0,0,0,0,0,0,0,0,0,0,0,0,0,0,0,0,0,0,0,0,0,0,0,0,0,0,0,0,0,0,0,0,0,0,0,0,0,0,0,0,0,0,0,0,0,0,0,0,0,0,0,0,0,0,0,0,0,0,0,0,0,0,0,0,0,0,0,0,0,0,0,0,0,0,0,0,0,0,0,0,0,0,0,0,0,0,0,0,0,0,0,0,0,0,0,0,0,0,0,0,0,0,0,0,0,0,0,0,0,0,0,0,0,0,0,0,0,0,0,0,0,0,0,0,0,0,0,0,0,0,0,0,0,0,0,0,0,0,0,0,0,0,0,0,0,0,0,0,0,0,0,0,0,0,0,0,0,0,0,0,0,0,0,0,0,0,0,0,0,0,0,0,0,0,0,0,0,0,0,0,0,0,0,0,0,0,0,0,0,0,0,0,0,0,0,0,0,0,0,0,0,0,0,0,0,0,0,0,0,0,0,0,0,0,0,0,0,0,0,0,0,0,0,0,0,0,0,0,0,0,0,0,0,0,0,0,0,0,0,0,0,0,0,0,0,0,0,0,0,0,0,0,0,0,0,0,0,0,0,0,0,0,0,0,0,0,0,0,0,0,0,0,0,0,0,0,0,0,0,0,0,0,0,0,0,0,0,0,0,0,0,0,0,0,0,0,0,0,0,0,0,0,0,0,0,0,0,0,0,0,0,0,0,0,0,0,0,0,0,0,0,0,0,0,0,0,0,0,0,0,0,0,0,0,0,0,0,0,0,0,0,0,0,0,0,0,0,0,0,0,0,0,0,0,0,0,0,0,0,0,0,0,0,0,0,0,0,0,0,0,0,0,0,0,0,0,0,0,0,0,0,0,0,0,0,0,0,0,0,0,0,0,0,0,0,0,0,0,0,0,0,0,0,0,0,0,0,0,0,0,0,0,0,0,0,0,0,0,0,0,0,0,0,0,0,0,0,0,0,0,0,0,0,0,0,0,0,0,0,0,0,0,0,0,0,0,0,0,0,0,0,0,0,0,0,0,0,0,0,0,0,0,0,0,0,0,0,0,0,0,0,0,0,0,0,0,0,0,0,0,0,0,0,0,0,0,0,0,0,0,0,0,0,0,0,0,0,0,0,0,0,0,0,0,0,0,0,0,0,0,0,0,0,0,0,0,0,0,0,0,0,0,0,0,0,0,0,0,0,0,0,0,0,0,0,0,0,0,0,0,0,0,0,0,0,0,0,0,0,0,0,0,0,0,0,0,0,0,0,0,0,0,0,0,0,0,0,0,0,0,0,0,0,0,0,0,0,0,0,0,0,0,0,0,0,0,0,0,0,0,0,0,0,0,0,0,0,0,0,0,0,0,0,0,0,0,0,0,0,0,0,0,0,0,0,0,0,0,0,0,0,0,0,0,0,0,0,0,0,0,0,0,0,0,0,0,0,0,0,0,0,0,0,0,0,0,0,0,0,0,0,0,0,0,0,0,0,0,0,0,0,0,0,0,0,0,0,0,0,0,0,0,0,0,0,0,0,0,0,0,0,0,0,0,0,0,0,0,0,0,0,0,0,0,0,0,0,0,0,0,0,0,0,0,0,0,0,0,0,0,0,0,0,0,0,0,0,0,0,0,0,0,0,0,0,0,0,0,0,0,0,0,0,0,0,0,0,0,0,0,0,0,0,0,0,0,0,0,0,0,0,0,0,0,0,0,0,0,0,0,0,0,0,0,0,0,0,0,0,0,0,0,0,0,0,0,0,0,0,0,0,0,0,0,0,0,0,0,0,0,0,0,0,0,0,0,0,0,0,0,0,0,0,0,0,0,0,0,0,0,0,0,0,0,0,0,0,0,0,0,0,0,0,0,0,0,0,0,0,0,0,0,0,0,0,0,0,0,0,0,0,0,0,0,0,0,0,0,0,0,0,0,0,0,0,0,0,0,0,0,0,0,0,0,0,0,0,0,0,0,0,0,0,0,0,0,0,0,0,0,0,0,0,0,0,0,0,0,0,0,0,0,0,0,0,0,0,0,0,0,0,0,0,0,0,0,0,0,0,0,0,0,0,0,0,0,0,0,0,0,0,0,0,0,0,0,0,0,0,0,0,0,0,0,0,0,0,0,0,0,0,0,0,0,0,0,0,0,0,0,0,0],"trees":[{"base_weights":[-1.3220339E0,-1.471136E0,1.8181819E-1,-4.4585988E-1,-1.6395223E0,6.8235296E-1,-1.3103448E0,-6.760563E-1,1.3684211E0,-1.6905311E0,-7.79661E-1,1.2982457E0,-5E-1,-1.6363636E0,-1.8181819E-1,2.7450982E-1,-1.1578947E0,-1.7066356E0,1.8181819E-1,2.0689656E-1,-1.5294118E0,1.4716982E0,-5E-1,4.4444445E-1,-1.3333334E0,-2.7027026E-1,1.3333334E0,-1.4358975E0,9.52381E-2,2.2222222E-1,-1.7189696E0,1.3846154E0,-6E-1,-0E0,-1.7333333E0,1.6595745E0,-0E0,1.2727273E0,-5.4545456E-1,4.7619048E-1,-1E0,6.666667E-1,-1.6164384E0,-8.5714287E-1,1.2727273E0,-1.7349112E0,-1.5384616E-1,3.3333334E-1,-1.3333334E0,1.804878E0,4E-1,1.2E0,-8E-1,-1.5E0,5E-1,-1.7647059E0,2.2222222E-1,-0E0,-1.2E0,-1.1044776E0,-1.7800511E0,-1E0,6.666667E-1,-5E-1,1E0,-2.2222222E-1,-1.8730159E0,1.5384616E-1,-1.3103448E0,-0E0,-1.789203E0,1.1111112E0,-1E0,5E-1,-1.4814814E0,-1.7984496E0,-0E0,-1.6666666E0,-0E0,-1.8120104E0,-3.3333334E-1],"categories":[],"categories_nodes":[],"categories_segments":[],"categories_sizes":[],"default_left":[true,true,true,true,true,true,true,true,false,true,true,true,true,false,false,true,true,true,false,true,true,true,false,true,false,true,false,true,true,false,true,false,true,false,false,true,false,false,false,true,true,false,true,true,false,true,true,true,false,false,false,false,false,false,false,true,false,false,false,true,true,false,false,false,false,false,false,true,true,false,true,false,false,false,true,true,false,false,false,false,false],"id":0,"left_children":[1,3,5,7,9,11,13,15,-1,17,19,21,23,-1,-1,25,27,29,-1,31,33,35,-1,37,-1,39,-1,41,43,-1,45,-1,47,-1,-1,49,-1,-1,-1,51,53,-1,55,57,-1,59,61,63,-1,-1,-1,-1,-1,-1,-1,65,-1,-1,-1,67,69,-1,-1,-1,-1,-1,-1,71,73,-1,75,-1,-1,-1,77,79,-1,-1,-1,-1,-1],"loss_changes":[6.641461E1,4.5623535E1,2.1433302E1,1.7317541E1,8.780884E0,1.6123426E1,2.3699064E0,1.657754E1,0E0,6.838379E0,1.1226596E1,5.1805687E0,6.8888893E0,0E0,0E0,7.714891E0,8.410641E0,5.490967E0,0E0,7.7204247E0,2.65098E0,3.6635895E0,0E0,4.3838387E0,0E0,5.5148005E0,0E0,8.479805E0,6.9783554E0,0E0,5.0600586E0,0E0,3.866667E0,0E0,0E0,1.4285431E0,0E0,0E0,0E0,5.8095236E0,4.5E0,0E0,5.3673553E0,1.0285714E0,0E0,4.0457153E0,2.9230769E0,2.1666667E0,0E0,0E0,0E0,0E0,0E0,0E0,0E0,2.4239006E0,0E0,0E0,0E0,4.540638E0,3.1848755E0,0E0,0E0,0E0,0E0,0E0,0E0,4.700855E0,5.233078E0,0E0,3.2177734E0,0E0,0E0,0E0,3.703703E0,3.2404785E0,0E0,0E0,0E0,0E0,0E0],"parents":[2147483647,0,0,1,1,2,2,3,3,4,4,5,5,6,6,7,7,9,9,10,10,11,11,12,12,15,15,16,16,17,17,19,19,20,20,21,21,23,23,25,25,27,27,28,28,30,30,32,32,35,35,39,39,40,40,42,42,43,43,45,45,46,46,47,47,55,55,59,59,60,60,67,67,68,68,70,70,74,74,75,75],"right_children":[2,4,6,8,10,12,14,16,-1,18,20,22,24,-1,-1,26,28,30,-1,32,34,36,-1,38,-1,40,-1,42,44,-1,46,-1,48,-1,-1,50,-1,-1,-1,52,54,-1,56,58,-1,60,62,64,-1,-1,-1,-1,-1,-1,-1,66,-1,-1,-1,68,70,-1,-1,-1,-1,-1,-1,72,74,-1,76,-1,-1,-1,78,80,-1,-1,-1,-1,-1],"split_conditions":[5E-1,1.9166667E0,3.6058154E0,8.895E2,1.35E1,1.3477606E1,5.20365E4,2.035E2,6.842106E-2,2.2E1,2.15E1,4.45E1,1.0563478E1,-8.1818186E-2,-9.09091E-3,1.0214286E1,2.5E0,1.060287E0,9.09091E-3,3.412311E0,3.2E1,1.171E3,-2.5E-2,3.6524814E2,-6.666667E-2,1.3535E3,6.666667E-2,3.5460396E0,1.45E1,1.1111111E-2,8.45E1,6.923077E-2,4.31025E4,-0E0,-8.6666666E-2,8E1,-0E0,6.363636E-2,-2.727273E-2,1.3701813E0,1.5440681E0,3.3333335E-2,5.3959066E-1,2.5E0,6.363636E-2,5.533E3,3.8907564E-1,4.485E2,-6.666667E-2,9.02439E-2,2.0000001E-2,6.0000002E-2,-4.0000003E-2,-7.5E-2,2.5E-2,1.346E3,1.1111111E-2,-0E0,-6.0000002E-2,5E0,3.517E3,-5E-2,3.3333335E-2,-2.5E-2,5E-2,-1.1111111E-2,-9.3650796E-2,8.25E1,1.893875E5,-0E0,1.335E3,5.555556E-2,-5E-2,2.5E-2,4.8961515E0,5.274E3,-0E0,-8.3333336E-2,-0E0,-9.060052E-2,-1.6666668E-2],"split_indices":[1913,1156,279,943,408,1188,1153,109,0,1024,1886,1934,1630,0,0,406,836,1105,0,279,0,154,0,925,0,146,0,1616,1942,0,1056,0,78,0,0,1054,0,0,0,1680,1719,0,342,21,0,1798,37,110,0,0,0,0,0,0,0,81,0,0,0,1127,64,0,0,0,0,0,0,106,1066,0,68,0,0,0,1574,940,0,0,0,0,0],"split_type":[0,0,0,0,0,0,0,0,0,0,0,0,0,0,0,0,0,0,0,0,0,0,0,0,0,0,0,0,0,0,0,0,0,0,0,0,0,0,0,0,0,0,0,0,0,0,0,0,0,0,0,0,0,0,0,0,0,0,0,0,0,0,0,0,0,0,0,0,0,0,0,0,0,0,0,0,0,0,0,0,0],"sum_hessian":[2.94E2,2.675E2,2.65E1,3.825E1,2.2925E2,2.025E1,6.25E0,3.45E1,3.75E0,2.155E2,1.375E1,1.325E1,7E0,4.5E0,1.75E0,1.175E1,2.275E1,2.1375E2,1.75E0,6.25E0,7.5E0,1.225E1,1E0,3.5E0,3.5E0,8.25E0,3.5E0,1.85E1,4.25E0,1.25E0,2.125E2,2.25E0,4E0,1E0,6.5E0,1.075E1,1.5E0,1.75E0,1.75E0,4.25E0,4E0,1.25E0,1.725E1,2.5E0,1.75E0,2.1025E2,2.25E0,2E0,2E0,9.25E0,1.5E0,2.75E0,1.5E0,3E0,1E0,1.6E1,1.25E0,1E0,1.5E0,1.575E1,1.945E2,1E0,1.25E0,1E0,1E0,1.25E0,1.475E1,2.25E0,1.35E1,1E0,1.935E2,1.25E0,1E0,1E0,1.25E1,1.925E2,1E0,1.1E1,1.5E0,1.905E2,2E0],"tree_param":{"num_deleted":"0","num_feature":"2079","num_nodes":"81","size_leaf_vector":"0"}},{"base_weights":[-1.2588613E0,-1.0560301E-1,-1.4277624E0,-6.3554984E-1,9.323324E-1,-1.6243361E0,-9.021001E-1,-1.1500635E0,3.5268757E-1,1.3190323E0,-5.49377E-1,-1.64342E0,6.616238E-1,-1.1180875E0,5.1291084E-1,-1.4264245E0,6.6025287E-1,9.1515553E-1,-1.0538387E0,1.715133E0,-1.5287949E-1,2.2626896E-1,-1.0805912E0,-3.7351033E-1,-1.6748568E0,-1.0325537E-2,-1.4717476E0,-2.3030108E-1,1.5138805E0,1.1622164E-2,-1.6403381E0,1.5600371E0,-2.6825613E-1,-1.0901172E0,5.1309496E-1,-9.4948626E-1,-1.7267971E0,-3.6556494E-1,1.38748E0,-1.5429925E0,6.5361965E-1,1.0917435E0,-1.264074E0,-1.7677219E0,-2.1782659E-1,-1.0663449E0,6.489427E-1,9.2135996E-1,-1.2853837E0,-3.0012605E-1,-1.7422951E0,3.2114276E-1,-1.1808974E0,-1.662205E0,-4.6161583E-1,-1.5450529E0,5.1950444E-2,-1.7580726E0,-4.1758683E-1,9.536604E-1,-8.099678E-1,-1.5657645E0,2.4216065E-1,-1.5220259E-1,-1.7248533E0,-1.147411E0,4.7124228E-1,-1.7095976E0,-1.8181309E-1,-6.093735E-1,-1.7740258E0,-1.7694639E-1,1.4927369E0,-1.9438209E-1,-1.0653374E0,-1.7255239E-1,-1.7707472E0,2.5900206E-1,-1.1470873E0,-7.0715904E-1,-1.7899336E0,-6.444668E-1,-1.8148009E0,-1.2198249E0,2.3352341E-1,-7.682853E-1,-1.8065567E0],"categories":[],"categories_nodes":[],"categories_segments":[],"categories_sizes":[],"default_left":[true,true,true,true,true,true,true,true,true,true,true,true,false,true,true,true,false,true,false,false,false,false,false,true,true,true,true,true,false,false,true,false,true,false,false,true,true,true,false,true,false,false,false,false,false,false,false,false,true,false,true,true,true,true,true,true,false,true,false,true,true,false,false,false,true,false,false,false,false,true,true,false,false,false,false,false,true,false,false,true,true,false,false,false,false,false,false],"id":1,"left_children":[1,3,5,7,9,11,13,15,17,19,21,23,-1,25,27,29,-1,31,-1,-1,-1,-1,-1,33,35,37,39,41,-1,-1,43,-1,45,-1,-1,47,49,51,-1,53,-1,-1,-1,-1,-1,-1,-1,-1,55,-1,57,59,61,63,65,67,-1,69,-1,71,73,-1,-1,-1,75,-1,-1,-1,-1,77,79,-1,-1,-1,-1,-1,81,-1,-1,83,85,-1,-1,-1,-1,-1,-1],"loss_changes":[5.721106E1,2.187913E1,2.5068726E1,1.3734186E1,8.451694E0,9.186188E0,2.2621086E1,9.683662E0,8.67025E0,6.6689034E0,1.6854229E0,6.7358704E0,0E0,2.4627533E1,7.965558E0,4.7795887E0,0E0,6.1369224E0,0E0,0E0,0E0,0E0,0E0,4.2071824E0,5.12912E0,8.56576E0,8.227089E0,1.0596837E1,0E0,0E0,2.0573235E0,0E0,3.251283E0,0E0,0E0,1.0124192E1,3.156952E0,8.0675535E0,0E0,5.217293E0,0E0,0E0,0E0,0E0,0E0,0E0,0E0,0E0,4.413519E0,0E0,2.7026062E0,6.6677184E0,3.9346027E0,3.6566315E0,4.375427E0,2.0403976E0,0E0,1.8910522E0,0E0,3.76502E0,3.4249187E-1,0E0,0E0,0E0,2.5214462E0,0E0,0E0,0E0,0E0,2.045689E0,1.4401855E0,0E0,0E0,0E0,0E0,0E0,7.3742676E-1,0E0,0E0,2.2117352E0,1.2689819E0,0E0,0E0,0E0,0E0,0E0,0E0],"parents":[2147483647,0,0,1,1,2,2,3,3,4,4,5,5,6,6,7,7,8,8,9,9,10,10,11,11,13,13,14,14,15,15,17,17,23,23,24,24,25,25,26,26,27,27,30,30,32,32,35,35,36,36,37,37,39,39,48,48,50,50,51,51,52,52,53,53,54,54,55,55,57,57,59,59,60,60,64,64,69,69,70,70,76,76,79,79,80,80],"right_children":[2,4,6,8,10,12,14,16,18,20,22,24,-1,26,28,30,-1,32,-1,-1,-1,-1,-1,34,36,38,40,42,-1,-1,44,-1,46,-1,-1,48,50,52,-1,54,-1,-1,-1,-1,-1,-1,-1,-1,56,-1,58,60,62,64,66,68,-1,70,-1,72,74,-1,-1,-1,76,-1,-1,-1,-1,78,80,-1,-1,-1,-1,-1,82,-1,-1,84,86,-1,-1,-1,-1,-1,-1],"split_conditions":[4.104125E3,5E-1,9.444444E-1,3.0277143E0,3.466793E0,2.2E1,5E-1,2.413175E5,1.05E1,3.7415E3,6.425E4,1.55E1,3.308119E-2,7.994E3,3.5E0,3.32032E5,3.3012643E-2,7.5E0,-5.2691936E-2,8.575665E-2,-7.643975E-3,1.1313449E-2,-5.402956E-2,2.471767E0,2.775E0,1.77E2,1.85E1,8.666666E0,7.5694025E-2,5.811082E-4,2.315E2,7.800186E-2,1.756E3,-5.4505862E-2,2.5654748E-2,3.5E0,1.7321429E0,1.5E0,6.9374E-2,1.8573325E0,3.2680985E-2,5.4587174E-2,-6.32037E-2,-8.8386096E-2,-1.08913295E-2,-5.3317245E-2,3.2447137E-2,4.6067998E-2,1.135E2,-1.5006303E-2,2.5E0,1.5E1,2.811575E0,3.831495E0,3.714665E0,2.727875E5,2.5975222E-3,1.5E0,-2.0879341E-2,1.03075E4,3.75E1,-7.828823E-2,1.2108033E-2,-7.6101297E-3,1.5E0,-5.737055E-2,2.3562115E-2,-8.547988E-2,-9.090655E-3,8.705E2,3.622204E-1,-8.8473195E-3,7.463685E-2,-9.7191045E-3,-5.326687E-2,-8.62762E-3,3.9341896E1,1.2950103E-2,-5.735437E-2,4.986E3,1.6933792E1,-3.222334E-2,-9.074005E-2,-6.0991246E-2,1.1676171E-2,-3.8414266E-2,-9.032784E-2],"split_indices":[1783,1917,1871,1631,33,1024,355,403,1124,146,403,1953,0,1794,2077,1066,0,1027,0,0,0,0,0,828,1198,1080,392,1198,0,0,180,0,907,0,0,954,406,591,0,1104,0,0,0,0,0,0,0,0,1954,0,357,1934,828,1103,1610,403,0,812,0,286,0,0,0,0,840,0,0,0,0,15,1674,0,0,0,0,0,1628,0,0,1801,1627,0,0,0,0,0,0],"split_type":[0,0,0,0,0,0,0,0,0,0,0,0,0,0,0,0,0,0,0,0,0,0,0,0,0,0,0,0,0,0,0,0,0,0,0,0,0,0,0,0,0,0,0,0,0,0,0,0,0,0,0,0,0,0,0,0,0,0,0,0,0,0,0,0,0,0,0,0,0,0,0,0,0,0,0,0,0,0,0,0,0,0,0,0,0,0,0],"sum_hessian":[2.934855E2,3.769932E1,2.5578618E2,2.521353E1,1.2485792E1,1.8464667E2,7.113952E1,1.6473207E1,8.740324E0,9.988707E0,2.4970858E0,1.8339668E2,1.2499741E0,6.1900814E1,9.238709E0,1.4475456E1,1.99775E0,6.493095E0,2.247229E0,7.740459E0,2.2482476E0,1.2483604E0,1.2487254E0,4.7415023E0,1.7865518E2,1.5228886E1,4.6671925E1,5.7438607E0,3.4948483E0,1.9968938E0,1.2478563E1,3.9968307E0,2.496264E0,2.495196E0,2.246306E0,1.3226152E1,1.6542903E2,1.2731711E1,2.497175E0,4.5423294E1,1.2486331E0,2.4958968E0,3.247964E0,1.1230235E1,1.2483277E0,1.2478516E0,1.2484124E0,1.7479001E0,1.1478252E1,1.9966108E0,1.6343242E2,7.239997E0,5.491714E0,4.04292E1,4.9940925E0,9.481846E0,1.996406E0,1.6118553E2,2.2468913E0,4.74402E0,2.4959772E0,4.243716E0,1.2479982E0,1.7471571E0,3.8682045E1,2.7456324E0,2.24846E0,8.233931E0,1.2479156E0,2.7448072E0,1.5844072E2,1.748547E0,2.995473E0,1.2482253E0,1.247752E0,1.2474818E0,3.7434563E1,1.2478812E0,1.4969261E0,2.995551E0,1.5544518E2,1.9974217E0,3.543714E1,1.7468077E0,1.2487435E0,3.2447205E0,1.5220045E2],"tree_param":{"num_deleted":"0","num_feature":"2079","num_nodes":"87","size_leaf_vector":"0"}},{"base_weights":[-1.2030169E0,-1.3394749E0,1.7026325E-1,-4.0548623E-1,-1.4932548E0,6.3258743E-1,-1.2091569E0,7.295452E-1,-7.92892E-1,-1.5398936E0,-7.088583E-1,1.1769255E0,-5.796785E-1,-1.5078204E0,-1.7500047E-1,1.2072629E0,-7.084454E-1,-1.0070722E0,1.0980223E0,-1.5514824E0,2.487972E-1,1.3247828E-1,-1.5994358E0,2.7823588E-1,1.4519024E0,-1.2327298E0,1.1531802E0,-2.2437465E-1,1.4947807E0,-1.1929107E0,7.292217E-1,2.4427724E-1,-1.5631862E0,1.2453306E0,-7.951889E-1,1.132761E0,-4.641319E-1,1.5923451E0,1.832004E-1,-1.4731975E0,-2.0267566E-1,5.0426644E-1,-1.3426635E0,-1.5842073E0,-5.7125E-1,-1.412139E0,6.540682E-1,-1.5113485E0,1.5869674E-1,-7.1110386E-1,-1.6131904E0,-1.219776E0,8.199185E-1,-1.6293998E0,1.216577E-2,4.5370942E-1,-1.3486056E0,-6.7014337E-1,-1.6362755E0,-4.1960913E-1,-1.7626902E0,1.2254484E0,-6.0834324E-1,-1.3939322E0,3.47453E-1,-6.9817716E-1,-1.6559697E0,1.1372377E0,-5.9812415E-1,-1.1974711E0,4.275708E-1,-1.6649826E0,-1.6116977E-1],"categories":[],"categories_nodes":[],"categories_segments":[],"categories_sizes":[],"default_left":[true,true,true,true,true,true,true,true,true,true,true,true,true,false,false,true,false,true,false,true,false,true,false,true,true,true,false,false,false,true,false,false,true,false,true,false,false,false,false,false,false,false,true,true,true,false,false,true,false,true,true,false,false,true,false,true,false,true,true,false,false,false,false,false,true,true,true,false,false,false,false,false,false],"id":2,"left_children":[1,3,5,7,9,11,13,15,17,19,21,23,25,-1,-1,27,-1,29,-1,31,-1,33,-1,35,37,39,-1,-1,-1,41,-1,-1,43,-1,45,-1,-1,-1,-1,-1,-1,-1,47,49,51,-1,-1,53,-1,55,57,-1,-1,59,-1,61,-1,63,65,-1,-1,-1,-1,-1,67,69,71,-1,-1,-1,-1,-1,-1],"loss_changes":[5.515625E1,3.770514E1,1.8226475E1,1.7763233E1,7.273285E0,1.4647846E1,1.9650984E0,8.044676E0,1.3100077E1,4.8420105E0,1.1215206E1,3.2868786E0,9.601379E0,0E0,0E0,3.7212362E0,0E0,9.622055E0,0E0,4.873596E0,0E0,9.739398E0,0E0,3.5303206E0,1.703764E0,1.1214838E0,0E0,0E0,0E0,7.000763E0,0E0,0E0,3.5253906E0,0E0,5.6019535E0,0E0,0E0,0E0,0E0,0E0,0E0,0E0,6.099373E0,4.1036987E0,6.3892226E0,0E0,0E0,3.777813E0,0E0,6.8903284E0,3.258484E0,0E0,0E0,2.3886032E0,0E0,3.810009E0,0E0,5.252286E0,2.4385986E0,0E0,0E0,0E0,0E0,0E0,3.2874112E0,3.7325585E0,2.2891846E0,0E0,0E0,0E0,0E0,0E0,0E0],"parents":[2147483647,0,0,1,1,2,2,3,3,4,4,5,5,6,6,7,7,8,8,9,9,10,10,11,11,12,12,15,15,17,17,19,19,21,21,23,23,24,24,25,25,29,29,32,32,34,34,42,42,43,43,44,44,47,47,49,49,50,50,53,53,55,55,57,57,58,58,64,64,65,65,66,66],"right_children":[2,4,6,8,10,12,14,16,18,20,22,24,26,-1,-1,28,-1,30,-1,32,-1,34,-1,36,38,40,-1,-1,-1,42,-1,-1,44,-1,46,-1,-1,-1,-1,-1,-1,-1,48,50,52,-1,-1,54,-1,56,58,-1,-1,60,-1,62,-1,64,66,-1,-1,-1,-1,-1,68,70,72,-1,-1,-1,-1,-1,-1],"split_conditions":[5E-1,1.9166667E0,3.6058154E0,2.368409E1,1.35E1,2.752575E0,5.20365E4,9.8E1,5.83E2,2.74E2,8.05E1,8.27E2,2.2E1,-7.539102E-2,-8.750024E-3,5.86E2,-3.5422273E-2,2.0776E4,5.490112E-2,1.060287E0,1.243986E-2,6.105E2,-7.997179E-2,1.7799E4,1.1615E3,3.2165054E2,5.765901E-2,-1.1218733E-2,7.473903E-2,3.5501385E0,3.6461085E-2,1.22138625E-2,9.25E1,6.226653E-2,5E1,5.663805E-2,-2.3206595E-2,7.9617254E-2,9.16002E-3,-7.3659874E-2,-1.0133783E-2,2.5213322E-2,1.65E1,1.815E2,1.4E1,-7.0606954E-2,3.270341E-2,1.05E1,7.934838E-3,5E0,4.2335E3,-6.0988802E-2,4.0995926E-2,9.65E1,6.082885E-4,8.266063E-1,-6.743028E-2,3.18E2,2.7859988E0,-2.0980457E-2,-8.813451E-2,6.127242E-2,-3.0417163E-2,-6.969661E-2,3.5E0,3.06E2,1.17175E4,5.6861885E-2,-2.9906208E-2,-5.987356E-2,2.137854E-2,-8.324913E-2,-8.058488E-3],"split_indices":[1913,1156,279,1627,408,1191,1153,82,180,1938,1956,1073,2067,0,0,174,0,1808,0,1105,0,261,0,1786,128,157,0,0,0,1616,0,0,1081,0,982,0,0,0,0,0,0,0,419,907,850,0,0,310,0,2040,1797,0,0,1083,0,1572,0,175,1711,0,0,0,0,0,1866,163,167,0,0,0,0,0,0],"split_type":[0,0,0,0,0,0,0,0,0,0,0,0,0,0,0,0,0,0,0,0,0,0,0,0,0,0,0,0,0,0,0,0,0,0,0,0,0,0,0,0,0,0,0,0,0,0,0,0,0,0,0,0,0,0,0,0,0,0,0,0,0,0,0,0,0,0,0,0,0,0,0,0,0],"sum_hessian":[2.9211414E2,2.657337E2,2.638043E1,3.80814E1,2.276523E2,2.016378E1,6.216649E0,9.465622E0,2.861578E1,2.1396703E2,1.3685274E1,1.3935528E1,6.2282524E0,4.4682136E0,1.7484356E0,7.225632E0,2.23999E0,2.612416E1,2.491619E0,2.1272144E2,1.2455878E0,7.4749064E0,6.2103677E0,3.7362914E0,1.0199236E1,4.733125E0,1.4951273E0,1.2451704E0,5.9804616E0,2.3881084E1,2.2430768E0,1.2487395E0,2.114727E2,3.242587E0,4.2323194E0,1.4924664E0,2.243825E0,8.953053E0,1.2461828E0,3.4885128E0,1.2446125E0,1.7443793E0,2.2136703E1,2.0649947E2,4.973234E0,2.9865527E0,1.2457666E0,1.989478E1,2.2419245E0,7.455026E0,1.9904443E2,3.4760103E0,1.4972239E0,1.8399567E1,1.4952139E0,2.7389133E0,4.7161126E0,5.473589E0,1.9357085E2,2.2376788E0,1.6161886E1,1.4971573E0,1.241756E0,2.9824352E0,2.491154E0,4.7297163E0,1.8884114E2,1.2469548E0,1.244199E0,3.232375E0,1.4973413E0,1.8759619E2,1.2449477E0],"tree_param":{"num_deleted":"0","num_feature":"2079","num_nodes":"73","size_leaf_vector":"0"}},{"base_weights":[-1.1520633E0,-9.1301925E-2,-1.3081032E0,-5.482146E-1,8.824088E-1,-1.4904156E0,-7.617879E-1,4.4460583E-1,-1.0494995E0,1.2249745E0,-6.3075835E-1,-1.5075554E0,3.943219E-1,1.2755427E0,-9.050798E-1,9.970403E-1,-9.680332E-1,-1.2596532E0,7.701861E-1,1.51708E0,-3.4161803E-1,-3.3132973E-1,-1.5360836E0,-1.1073163E0,4.1557243E-1,1.3884405E0,-3.4580755E-1,-1.6013985E0,2.2508131E-2,-1.0240139E0,5.135216E-1,7.588403E-2,-1.5497411E0,3.6064544E-1,-1.2638873E0,1.0204635E0,-9.697044E-1,1.127303E0,-9.087056E-1,-8.0036503E-1,-1.5894576E0,9.293235E-1,-1.0038153E0,-5.8424555E-2,-1.3762326E0,-3.7292734E-1,1.490479E0,7.7685595E-1,-1.2841026E0,-1.4865002E-1,-1.5990746E0,1.3902925E0,-2.001507E-1,-8.611211E-1,1.1656367E0,4.0238735E-1,-1.4469558E0,-1.4533625E0,-1.2973392E-1,-1.6089288E0,-2.8674838E-1,-1.7577936E-1,-1.1297134E0,-1.5033839E0,2.5415388E-1,-1.632597E0,-8.733522E-1,-1.5617758E0,2.2963402E-1,-6.494663E-1,-1.6469104E0,7.7315223E-1,-1.3287878E0,-2.2403413E-1,-1.6243575E0],"categories":[],"categories_nodes":[],"categories_segments":[],"categories_sizes":[],"default_left":[true,true,true,true,true,true,true,true,true,true,false,true,false,false,true,true,false,true,false,false,false,true,true,true,true,false,false,false,true,false,false,false,true,true,true,true,false,false,false,true,true,true,false,true,true,false,false,false,true,false,true,false,false,true,false,false,true,false,false,true,false,false,false,true,false,true,true,true,false,false,false,false,false,false,false],"id":3,"left_children":[1,3,5,7,9,11,13,15,17,19,-1,21,-1,-1,23,25,-1,27,-1,-1,-1,29,31,33,35,-1,-1,-1,37,-1,-1,-1,39,41,43,45,-1,-1,-1,47,49,51,-1,53,55,-1,-1,-1,57,-1,59,-1,-1,61,-1,-1,63,-1,-1,65,-1,-1,-1,67,-1,69,71,73,-1,-1,-1,-1,-1,-1,-1],"loss_changes":[4.804953E1,1.7565283E1,2.4125153E1,1.3778988E1,7.32757E0,6.7036133E0,2.0277409E1,8.516841E0,7.881052E0,5.392289E0,0E0,5.7867126E0,0E0,0E0,1.696199E1,4.3952622E0,0E0,7.3010235E0,0E0,0E0,0E0,3.8719797E0,4.144226E0,1.2833412E1,8.474084E0,0E0,0E0,0E0,5.6286564E0,0E0,0E0,0E0,4.1271057E0,5.5639124E0,6.539963E0,4.946716E0,0E0,0E0,0E0,9.500778E0,2.135376E0,2.7419224E0,0E0,6.124646E0,6.2016144E0,0E0,0E0,0E0,1.5515909E0,0E0,1.7374268E0,0E0,0E0,4.867065E-1,0E0,0E0,4.527153E0,0E0,0E0,1.5084534E0,0E0,0E0,0E0,4.6027527E0,0E0,1.2120361E0,6.5797043E0,3.0435333E0,0E0,0E0,0E0,0E0,0E0,0E0,0E0],"parents":[2147483647,0,0,1,1,2,2,3,3,4,4,5,5,6,6,7,7,8,8,9,9,11,11,14,14,15,15,17,17,21,21,22,22,23,23,24,24,28,28,32,32,33,33,34,34,35,35,39,39,40,40,41,41,43,43,44,44,48,48,50,50,53,53,56,56,59,59,63,63,65,65,66,66,67,67],"right_children":[2,4,6,8,10,12,14,16,18,20,-1,22,-1,-1,24,26,-1,28,-1,-1,-1,30,32,34,36,-1,-1,-1,38,-1,-1,-1,40,42,44,46,-1,-1,-1,48,50,52,-1,54,56,-1,-1,-1,58,-1,60,-1,-1,62,-1,-1,64,-1,-1,66,-1,-1,-1,68,-1,70,72,74,-1,-1,-1,-1,-1,-1,-1],"split_conditions":[4.104125E3,2.985E2,2.105E2,6.45E1,1.25335E4,2.2E1,3.1666665E0,4.0661144E0,7.15485E4,2.59385E5,-3.1537917E-2,1.55E1,1.9716095E-2,6.377714E-2,8.1162465E-1,2.827E3,-4.840166E-2,1.4123E4,3.8509306E-2,7.5853996E-2,-1.7080901E-2,5.475522E0,3.6785E3,4.738E3,1.5E0,6.942203E-2,-1.7290378E-2,-8.006992E-2,5.143E3,-5.1200695E-2,2.5676081E-2,3.7942014E-3,2.5357141E0,2.215682E0,1.91E2,1.32E2,-4.848522E-2,5.636515E-2,-4.543528E-2,3.5E0,3.4E1,6.5E1,-5.0190765E-2,1.5E0,3.571851E0,-1.8646367E-2,7.452395E-2,3.8842797E-2,3.4543328E0,-7.4325013E-3,9.934541E0,6.9514625E-2,-1.0007535E-2,1.5E0,5.8281835E-2,2.0119367E-2,3E0,-7.266813E-2,-6.486696E-3,1.3520753E0,-1.43374195E-2,-8.788968E-3,-5.648567E-2,1.1E1,1.2707694E-2,2.7859988E0,2.175E2,6.64E2,1.1481701E-2,-3.2473315E-2,-8.234552E-2,3.8657613E-2,-6.643939E-2,-1.1201707E-2,-8.121788E-2],"split_indices":[1783,170,170,82,171,1024,978,970,1820,1065,0,1953,0,0,1570,179,0,378,0,0,0,1723,64,1794,266,0,0,0,1797,0,0,0,978,1107,109,1083,0,0,0,1091,909,1082,0,994,1616,0,0,0,822,0,1733,0,0,16,0,0,1999,0,0,1570,0,0,0,372,0,1711,109,182,0,0,0,0,0,0,0],"split_type":[0,0,0,0,0,0,0,0,0,0,0,0,0,0,0,0,0,0,0,0,0,0,0,0,0,0,0,0,0,0,0,0,0,0,0,0,0,0,0,0,0,0,0,0,0,0,0,0,0,0,0,0,0,0,0,0,0,0,0,0,0,0,0,0,0,0,0,0,0,0,0,0,0,0,0],"sum_hessian":[2.9001382E2,3.739403E1,2.5261978E2,2.5748543E1,1.1645491E1,1.8811522E2,6.4504555E1,8.676788E0,1.7071754E1,9.651048E0,1.9944428E0,1.8661824E2,1.4969763E0,3.719456E0,6.07851E1,6.449005E0,2.2277834E0,1.5580178E1,1.4915756E0,8.160967E0,1.4900811E0,4.717772E0,1.8190048E2,5.285305E1,7.9320498E0,4.967248E0,1.481757E0,1.21048E1,3.4753788E0,2.475815E0,2.2419567E0,1.4899373E0,1.8041054E2,4.9683094E0,4.788474E1,5.7044926E0,2.2275572E0,1.4932309E0,1.9821477E0,1.0145022E1,1.7026552E2,3.7318585E0,1.236451E0,4.2118397E0,4.36729E1,1.4909728E0,4.2135196E0,2.2389627E0,7.9060597E0,1.2380475E0,1.6902747E2,2.4862375E0,1.245621E0,2.7228165E0,1.4890231E0,1.4908109E0,4.2182087E1,6.6691775E0,1.2368826E0,1.6754338E2,1.4840894E0,1.2324743E0,1.4903423E0,4.0940277E1,1.2418104E0,1.6113902E2,6.4043484E0,3.9701397E1,1.2388798E0,2.9778602E0,1.5816116E2,1.2365012E0,5.167847E0,1.9789678E0,3.772243E1],"tree_param":{"num_deleted":"0","num_feature":"2079","num_nodes":"75","size_leaf_vector":"0"}},{"base_weights":[-1.1058664E0,-1.2324382E0,1.5977193E-1,-3.6924756E-1,-1.375615E0,5.909778E-1,-1.1275088E0,1.1685603E0,-6.1628956E-1,-3.6152261E-1,-1.4061011E0,1.1309744E0,-4.4360432E-1,-1.4165822E0,-1.4861208E-1,1.416566E0,1.4999355E-1,1.095285E0,-8.005582E-1,-1.0851359E0,8.633619E-1,-1.4201201E0,2.2148687E-1,1.278608E0,-2.1693638E-1,4.0543064E-1,-1.1919535E0,-1.0047776E0,7.495961E-1,-1.4300495E-1,-1.3278298E0,1.130498E0,2.1097155E-1,-1.43409E0,1.8823686E-1,1.5785371E0,3.6592835E-1,1.1282127E0,-4.64836E-1,-1.1367459E0,1.0232506E0,1.2188408E0,-2.1394493E-1,2.3922452E-1,-1.4449776E0,-7.832053E-1,1.2055213E0,1.3942685E-2,-1.3366306E0,-1.4592549E0,-6.2741324E-2,6.211387E-1,-1.0027416E0,-1.537985E0,-8.188904E-2,-1.4826685E0,-5.8223945E-1,-2.0065689E-1,1.1096019E0,-3.0348775E-1,-1.6588022E0,8.422292E-1,-1.0694607E0,-7.2948295E-1,-1.513888E0,-1.2002708E0,5.3968585E-1,2.2249168E-1,-1.3164592E0,-1.5221469E0,-1.0960367E-1],"categories":[],"categories_nodes":[],"categories_segments":[],"categories_sizes":[],"default_left":[true,true,true,true,true,true,true,true,true,true,true,true,true,false,false,false,false,false,true,true,true,true,false,true,false,true,false,true,true,false,false,false,false,true,false,false,true,false,false,true,false,false,false,false,true,false,false,true,true,true,false,true,false,true,true,true,true,false,false,false,false,false,false,true,true,false,false,false,false,false,false],"id":4,"left_children":[1,3,5,7,9,11,13,15,17,19,21,23,25,-1,-1,-1,-1,-1,27,29,31,33,-1,35,-1,37,-1,39,41,-1,-1,-1,-1,43,-1,-1,45,-1,-1,47,-1,-1,-1,-1,49,-1,-1,51,53,55,-1,57,-1,59,61,63,65,-1,-1,-1,-1,-1,-1,67,69,-1,-1,-1,-1,-1,-1],"loss_changes":[4.637451E1,3.1893127E1,1.5704761E1,1.5409435E1,6.4323425E0,1.220602E1,1.8104506E0,1.2266564E0,1.1590234E1,7.9374003E0,5.2796326E0,3.0727234E0,5.5046873E0,0E0,0E0,0E0,0E0,0E0,1.0644415E1,1.0466852E0,3.6973643E-1,5.120514E0,0E0,2.9277515E0,0E0,3.322706E0,0E0,8.666351E0,2.164175E0,0E0,0E0,0E0,0E0,4.2469177E0,0E0,0E0,5.2560015E0,0E0,0E0,6.181835E0,0E0,0E0,0E0,0E0,4.109833E0,0E0,0E0,3.6819856E0,5.6446495E0,3.4627686E0,0E0,1.7159339E0,0E0,2.423729E0,4.7472095E0,3.7054138E0,5.587962E0,0E0,0E0,0E0,0E0,0E0,0E0,5.920492E0,2.1003113E0,0E0,0E0,0E0,0E0,0E0,0E0],"parents":[2147483647,0,0,1,1,2,2,3,3,4,4,5,5,6,6,7,7,8,8,9,9,10,10,11,11,12,12,18,18,19,19,20,20,21,21,23,23,25,25,27,27,28,28,33,33,36,36,39,39,44,44,47,47,48,48,49,49,51,51,53,53,54,54,55,55,56,56,63,63,64,64],"right_children":[2,4,6,8,10,12,14,16,18,20,22,24,26,-1,-1,-1,-1,-1,28,30,32,34,-1,36,-1,38,-1,40,42,-1,-1,-1,-1,44,-1,-1,46,-1,-1,48,-1,-1,-1,-1,50,-1,-1,52,54,56,-1,58,-1,60,62,64,66,-1,-1,-1,-1,-1,-1,68,70,-1,-1,-1,-1,-1,-1],"split_conditions":[5E-1,1.9166667E0,3.6058154E0,1.3E1,4.246E3,1.3477606E1,5.20365E4,2.5E0,3.5501385E0,1.7E1,1.5E1,1.7E1,7E0,-7.0829116E-2,-7.430604E-3,7.08283E-2,7.4996776E-3,5.4764252E-2,5.59E2,1.5E0,2.9E1,2.2E1,1.1074344E-2,1.171E3,-1.0846819E-2,4.666667E0,-5.959768E-2,2.5E0,2.6E1,-7.1502477E-3,-6.639149E-2,5.6524903E-2,1.0548578E-2,1.15E1,9.4118435E-3,7.8926854E-2,1.4654204E3,5.6410637E-2,-2.3241801E-2,9.8E1,5.116253E-2,6.0942043E-2,-1.06972465E-2,1.1961226E-2,8.45E1,-3.9160263E-2,6.027607E-2,3.4282496E0,7.05915E4,1.55E1,-3.1370663E-3,3.6E1,-5.013708E-2,7.532203E1,1.995E2,2.8452382E0,1.6033E4,-1.0032845E-2,5.5480093E-2,-1.5174388E-2,-8.294011E-2,4.211146E-2,-5.3473037E-2,5.561E3,2.05E1,-6.001354E-2,2.6984293E-2,1.1124584E-2,-6.582296E-2,-7.6107346E-2,-5.4801838E-3],"split_indices":[1913,1156,279,1116,1797,1188,1153,1858,1616,834,385,1979,1982,0,0,0,0,0,943,308,382,1024,0,1,0,883,0,1915,91,0,0,0,0,1117,0,0,160,0,0,1083,0,0,0,0,1056,0,0,1619,1820,372,0,120,0,96,1080,978,1495,0,0,0,0,0,0,1800,788,0,0,0,0,0,0],"split_type":[0,0,0,0,0,0,0,0,0,0,0,0,0,0,0,0,0,0,0,0,0,0,0,0,0,0,0,0,0,0,0,0,0,0,0,0,0,0,0,0,0,0,0,0,0,0,0,0,0,0,0,0,0,0,0,0,0,0,0,0,0,0,0,0,0,0,0,0,0,0,0],"sum_hessian":[2.872604E2,2.6116818E2,2.6092213E1,3.7665817E1,2.2350237E2,1.995029E1,6.141923E0,4.697045E0,3.2968773E1,6.898226E0,2.1660414E2,1.3047186E1,6.903105E0,4.396494E0,1.745429E0,3.4630902E0,1.2339548E0,2.723904E0,3.0244867E1,4.408154E0,2.4900718E0,2.1488077E2,1.7233739E0,1.1805564E1,1.2416215E0,3.4486704E0,3.4544342E0,2.7035055E1,3.2098126E0,1.2284778E0,3.1796763E0,1.2467191E0,1.2433528E0,2.1313785E2,1.7429302E0,8.336441E0,3.4691236E0,1.7220545E0,1.7266159E0,2.5795937E1,1.2391175E0,1.9803982E0,1.2294143E0,1.2422655E0,2.1189557E2,1.4929352E0,1.9761885E0,3.955471E0,2.1840466E1,2.0967412E2,2.2214532E0,2.7200346E0,1.2354363E0,1.8625761E1,3.2147048E0,2.0354938E2,6.1247478E0,1.2336823E0,1.4863523E0,1.9734285E0,1.6652332E1,1.7367324E0,1.4779723E0,9.071094E0,1.9447829E2,3.9042144E0,2.2205331E0,3.6966748E0,5.3744183E0,1.9325777E2,1.2205195E0],"tree_param":{"num_deleted":"0","num_feature":"2079","num_nodes":"71","size_leaf_vector":"0"}},{"base_weights":[-1.0630074E0,-1.1850084E0,1.524481E-1,-2.5902256E-1,-1.3097208E0,5.687928E-1,-1.090323E0,7.2821194E-1,-7.26579E-1,-1.3579968E0,-5.4059964E-1,1.0620346E0,-5.248829E-1,-1.372413E0,-1.4390753E-1,1.0227132E0,-6.846902E-1,5.5113006E-1,-9.7111964E-1,9.7262874E-2,-1.375411E0,2.1266633E-1,-1.4415883E0,1.2775751E0,8.360611E-2,-1.1356431E0,1.0820177E0,1.4826111E0,1.6269494E-2,-6.0161465E-1,1.2280656E0,-1.2226701E0,4.0086082E-1,7.134591E-1,-5.663779E-1,-1.3892208E0,1.8225402E-1,9.3684405E-1,-8.710798E-1,8.778785E-2,1.4682487E0,-1.0341995E0,1.0625436E0,-1.6502054E-1,-1.3662319E0,7.988713E-1,-9.5270526E-1,-1.3573956E0,2.360551E-1,1.0908637E0,-5.538513E-1,-1.4067065E0,-4.0938422E-2,1.4357798E0,-3.410509E-1,-1.1472145E0,-1.1081285E-1,-1.5124782E0,-2.070281E-1,-1.0173988E0,-1.4719695E0,8.030888E-1,-9.67027E-1,-1.5739385E0,-4.9534547E-1,-4.345772E-1,-1.4056891E0,-1.48584E0,-1.6366598E-1,-9.777713E-1,6.631443E-1,-1.5355695E0,-1.629923E-1,-2.3513705E-1,-1.5004014E0,-1.2519732E0,1.1668114E-1,1.2974766E0,-6.297126E-1,-1.5884773E0,-4.4604984E-1,-1.5319422E0,-7.81147E-1],"categories":[],"categories_nodes":[],"categories_segments":[],"categories_sizes":[],"default_left":[true,true,true,true,true,true,true,true,true,true,true,true,true,false,false,true,false,true,true,true,true,true,false,true,true,true,false,false,true,false,false,true,true,false,false,true,false,true,true,false,false,false,false,false,false,false,false,true,false,false,false,true,true,false,false,false,false,true,false,true,true,false,false,false,false,true,true,true,false,true,true,true,false,false,true,false,false,false,false,false,false,false,false],"id":5,"left_children":[1,3,5,7,9,11,13,15,17,19,21,23,25,-1,-1,27,-1,29,31,33,35,37,-1,39,41,43,-1,-1,45,-1,-1,47,49,-1,-1,51,-1,53,55,-1,-1,-1,-1,-1,-1,-1,-1,57,-1,-1,-1,59,61,-1,-1,-1,-1,63,-1,65,67,-1,-1,-1,-1,69,71,73,-1,75,77,79,-1,-1,81,-1,-1,-1,-1,-1,-1,-1,-1],"loss_changes":[4.244629E1,2.9586792E1,1.4531416E1,1.5302282E1,7.7365417E0,1.1775829E1,1.6952505E0,5.1881437E0,7.477746E0,5.557007E0,1.0578585E1,2.9854946E0,8.229368E0,0E0,0E0,4.2926407E0,0E0,4.0219917E0,7.0516376E0,1.8208292E0,4.8035583E0,7.969595E0,0E0,2.5811863E0,5.166323E0,1.0405416E0,0E0,0E0,3.7459528E0,0E0,0E0,3.526434E0,3.040804E0,0E0,0E0,4.888397E0,0E0,4.2805243E0,7.481382E-1,0E0,0E0,0E0,0E0,0E0,0E0,0E0,0E0,2.3775616E0,0E0,0E0,0E0,3.7636719E0,3.6811182E0,0E0,0E0,0E0,0E0,4.127121E-2,0E0,6.8499794E0,2.9344788E0,0E0,0E0,0E0,0E0,9.371672E0,2.8710213E0,2.8005981E0,0E0,3.2043705E0,5.277334E0,2.938919E-1,0E0,0E0,2.6819153E0,0E0,0E0,0E0,0E0,0E0,0E0,0E0,0E0],"parents":[2147483647,0,0,1,1,2,2,3,3,4,4,5,5,6,6,7,7,8,8,9,9,10,10,11,11,12,12,15,15,17,17,18,18,19,19,20,20,21,21,23,23,24,24,25,25,28,28,31,31,32,32,35,35,37,37,38,38,47,47,51,51,52,52,57,57,59,59,60,60,65,65,66,66,67,67,69,69,70,70,71,71,74,74],"right_children":[2,4,6,8,10,12,14,16,18,20,22,24,26,-1,-1,28,-1,30,32,34,36,38,-1,40,42,44,-1,-1,46,-1,-1,48,50,-1,-1,52,-1,54,56,-1,-1,-1,-1,-1,-1,-1,-1,58,-1,-1,-1,60,62,-1,-1,-1,-1,64,-1,66,68,-1,-1,-1,-1,70,72,74,-1,76,78,80,-1,-1,82,-1,-1,-1,-1,-1,-1,-1,-1],"split_conditions":[5E-1,9.25E0,4.035E3,5.796E3,1.35E1,2.752575E0,5.20365E4,5E-1,2.7600916E1,1.0965623E0,8.05E1,1.3444294E1,2.6250277E1,-6.862065E-2,-7.195377E-3,7.5E0,-3.423451E-2,1.72217E5,2.5E0,5E-1,2.2E1,1.095E3,-7.207941E-2,2.120574E0,7.8E1,1.5324E4,5.4100882E-2,7.413056E-2,1.925E2,-3.0080734E-2,6.1403282E-2,9.7712123E-1,1.71E2,3.5672955E-2,-2.8318895E-2,8.45E1,9.112701E-3,1.031E3,3.5E0,4.3893927E-3,7.341244E-2,-5.1709976E-2,5.312718E-2,-8.251027E-3,-6.8311594E-2,3.9943565E-2,-4.7635265E-2,3.4543328E0,1.1802755E-2,5.4543186E-2,-2.7692566E-2,1.1901057E0,7.5E0,7.178899E-2,-1.7052544E-2,-5.7360727E-2,-5.5406424E-3,4.6444387E0,-1.03514055E-2,5E-1,5.274E3,4.015444E-2,-4.835135E-2,-7.869693E-2,-2.4767274E-2,2.734846E0,8E0,1.435E2,-8.1833E-3,1.15E1,1.07175E4,3.5E0,-8.1496155E-3,-1.1756852E-2,5.3959066E-1,-6.259866E-2,5.8340575E-3,6.487384E-2,-3.148563E-2,-7.942387E-2,-2.2302492E-2,-7.659712E-2,-3.905735E-2],"split_indices":[1913,1872,285,1109,408,1191,1153,287,98,1695,1956,1630,1641,0,0,1936,0,1065,1115,52,1024,261,0,398,84,1817,0,0,1083,0,0,1715,953,0,0,1056,0,177,13,0,0,0,0,0,0,0,0,822,0,0,0,1191,383,0,0,0,0,826,0,2015,940,0,0,0,0,822,418,167,0,405,130,1504,0,0,1655,0,0,0,0,0,0,0,0],"split_type":[0,0,0,0,0,0,0,0,0,0,0,0,0,0,0,0,0,0,0,0,0,0,0,0,0,0,0,0,0,0,0,0,0,0,0,0,0,0,0,0,0,0,0,0,0,0,0,0,0,0,0,0,0,0,0,0,0,0,0,0,0,0,0,0,0,0,0,0,0,0,0,0,0,0,0,0,0,0,0,0,0,0,0],"sum_hessian":[2.8402615E2,2.581404E2,2.5885736E1,3.100513E1,2.2713528E2,1.97961E1,6.089636E0,9.785594E0,2.1219538E1,2.130001E2,1.4135182E1,1.3663064E1,6.1330366E0,4.3445697E0,1.7450659E0,8.326255E0,1.4593396E0,3.2073903E0,1.8012146E1,2.4644842E0,2.1053561E2,8.11481E0,6.020373E0,1.0946E1,2.7170641E0,4.656455E0,1.4765816E0,5.390108E0,2.9361465E0,1.2278197E0,1.9795707E0,1.5313305E1,2.6988423E0,1.2389967E0,1.2254875E0,2.0879265E2,1.7429645E0,4.9456153E0,3.1691947E0,1.7136129E0,9.232388E0,1.2421999E0,1.4748642E0,1.2232116E0,3.4332433E0,1.7213951E0,1.2147515E0,1.4082163E1,1.2311422E0,1.4838231E0,1.2150193E0,2.0607675E2,2.715899E0,3.4680243E0,1.4775909E0,1.9514503E0,1.2177444E0,1.2131871E1,1.9502914E0,3.1968307E1,1.7410844E2,1.49039E0,1.225509E0,1.0924341E1,1.2075298E0,1.3629585E1,1.8338724E1,1.7214766E2,1.9607861E0,9.190868E0,4.438717E0,1.6390043E1,1.9486799E0,2.178529E0,1.6996913E2,7.23444E0,1.9564284E0,2.9753206E0,1.4633963E0,1.5194241E1,1.1958029E0,1.6174629E2,8.222835E0],"tree_param":{"num_deleted":"0","num_feature":"2079","num_nodes":"83","size_leaf_vector":"0"}},{"base_weights":[-1.0249411E0,-1.1429195E0,1.4546049E-1,-3.343553E-1,-1.2782913E0,5.47957E-1,-1.0557199E0,6.712203E-1,-6.8008107E-1,-1.320639E0,-5.789277E-1,9.098634E-1,-4.065961E-1,-1.3318627E0,-1.3935408E-1,1.0840862E0,-5.8817023E-1,-8.808895E-1,1.2023778E0,-5.761527E-1,-1.3561695E0,1.7184378E-1,-1.3980154E0,1.1505398E0,-2.504849E-1,-1.148058E0,8.4209794E-1,-1.9113447E-1,1.340464E0,-1.0285605E0,7.949941E-1,8.8263005E-2,-1.3269379E0,-6.025343E-1,-1.3847251E0,1.1600698E0,-6.70461E-1,-3.4706265E-2,1.3071222E0,-9.771214E-1,5.916212E-1,-1.2528428E0,-8.795905E-2,-1.0431072E0,6.58647E-1,8.000311E-1,-9.311424E-1,-1.3958889E0,2.8994556E-3,-1.260115E0,6.5982294E-1,1.4329817E0,1.4334951E-1,1.7279413E-1,-1.3952198E0,-1.1605067E0,8.571021E-1,1.1271079E0,-4.8432034E-1,-1.3504156E0,2.1039176E-1,-1.7285502E-1,-1.4078189E0,-1.5687796E0,-4.243952E-1,1.0893E0,2.0861544E-1,3.0514923E-1,1.3843608E0,-1.4167237E0,-3.229882E-2,-1.0476232E0,4.2366338E-1,-1.01919E0,-1.4661082E0,-1.1761826E0,4.6852905E-1,-1.477226E0,7.567692E-3],"categories":[],"categories_nodes":[],"categories_segments":[],"categories_sizes":[],"default_left":[true,true,true,true,true,true,true,true,true,true,true,true,true,false,false,true,false,true,false,true,true,true,false,true,true,false,false,false,false,true,false,true,false,true,true,false,true,false,true,false,false,true,true,false,true,false,true,true,false,false,false,false,false,false,true,false,true,true,false,false,false,false,true,false,true,false,false,false,false,true,false,false,false,true,true,false,false,false,false],"id":6,"left_children":[1,3,5,7,9,11,13,15,17,19,21,23,25,-1,-1,27,-1,29,-1,31,33,35,-1,37,39,-1,-1,-1,-1,41,-1,43,-1,45,47,-1,49,-1,51,-1,-1,53,55,-1,57,-1,59,61,-1,-1,-1,-1,-1,-1,63,-1,65,67,-1,-1,-1,-1,69,-1,71,-1,-1,-1,-1,73,-1,-1,-1,75,77,-1,-1,-1,-1],"loss_changes":[3.901001E1,2.7556488E1,1.3461479E1,1.3673981E1,5.7108765E0,7.4923635E0,1.5932279E0,5.9569955E0,1.1941729E1,4.651306E0,9.011761E0,4.5493383E0,6.854327E0,0E0,0E0,2.8901176E0,0E0,7.39843E0,0E0,5.651084E0,3.3682861E0,7.713919E0,0E0,2.423849E0,2.6844869E0,0E0,0E0,0E0,0E0,5.137146E0,0E0,5.090069E0,0E0,4.8467293E0,2.9068909E0,0E0,4.8572445E0,0E0,1.4564857E0,0E0,0E0,4.302479E0,6.939148E0,0E0,3.3028975E0,0E0,3.956262E0,2.4689636E0,0E0,0E0,0E0,0E0,0E0,0E0,2.4181023E0,0E0,3.2880092E-1,4.133792E-1,0E0,0E0,0E0,0E0,2.2074585E0,0E0,2.6354742E0,0E0,0E0,0E0,0E0,2.0935059E0,0E0,0E0,0E0,6.03376E0,2.637146E0,0E0,0E0,0E0,0E0],"parents":[2147483647,0,0,1,1,2,2,3,3,4,4,5,5,6,6,7,7,8,8,9,9,10,10,11,11,12,12,15,15,17,17,19,19,20,20,21,21,23,23,24,24,29,29,31,31,33,33,34,34,36,36,38,38,41,41,42,42,44,44,46,46,47,47,54,54,56,56,57,57,62,62,64,64,69,69,73,73,74,74],"right_children":[2,4,6,8,10,12,14,16,18,20,22,24,26,-1,-1,28,-1,30,-1,32,34,36,-1,38,40,-1,-1,-1,-1,42,-1,44,-1,46,48,-1,50,-1,52,-1,-1,54,56,-1,58,-1,60,62,-1,-1,-1,-1,-1,-1,64,-1,66,68,-1,-1,-1,-1,70,-1,72,-1,-1,-1,-1,74,-1,-1,-1,76,78,-1,-1,-1,-1],"split_conditions":[5E-1,1.9166667E0,4.035E3,2.368409E1,1.1300356E0,1.13E2,5.20365E4,9.8E1,8.895E2,9.5E0,8.05E1,2.5E0,4.6985E3,-6.659313E-2,-6.9677043E-3,5.86E2,-2.9408513E-2,2.17925E4,6.011889E-2,5.75E1,3.95E1,6.105E2,-6.990077E-2,2.39E2,2.75E1,-5.7402905E-2,4.2104896E-2,-9.556724E-3,6.70232E-2,1.40735E4,3.9749708E-2,6.75E1,-6.63469E-2,1.2124408E0,2.2E1,5.8003493E-2,4.6444387E0,-1.7353132E-3,4.0365E3,-4.8856072E-2,2.958106E-2,3.275E2,2.434569E0,-5.2155357E-2,2.65E1,4.0001556E-2,3.5E0,6.4365E3,1.4497279E-4,-6.300575E-2,3.299115E-2,7.164909E-2,7.1674758E-3,8.639707E-3,1.275E3,-5.8025338E-2,1.8225E3,8.4375E5,-2.4216017E-2,-6.752078E-2,1.0519588E-2,-8.642751E-3,3.8696754E0,-7.843898E-2,1.5315E3,5.4465003E-2,1.0430772E-2,1.5257462E-2,6.921804E-2,2.0646E4,-1.6149409E-3,-5.2381158E-2,2.1183169E-2,3.368285E0,1.0201E5,-5.880913E-2,2.3426453E-2,-7.38613E-2,3.783846E-4],"split_indices":[1913,1156,285,1627,1565,112,1153,82,943,1116,1956,591,378,0,0,174,0,1808,0,1078,121,261,0,110,0,0,0,0,0,378,0,1075,0,970,1024,0,826,0,138,0,0,167,1574,0,2059,0,993,1821,0,0,0,0,0,0,186,0,174,1066,0,0,0,0,1690,0,937,0,0,0,0,1786,0,0,0,1626,78,0,0,0,0],"split_type":[0,0,0,0,0,0,0,0,0,0,0,0,0,0,0,0,0,0,0,0,0,0,0,0,0,0,0,0,0,0,0,0,0,0,0,0,0,0,0,0,0,0,0,0,0,0,0,0,0,0,0,0,0,0,0,0,0,0,0,0,0,0,0,0,0,0,0,0,0,0,0,0,0,0,0,0,0,0,0],"sum_hessian":[2.8030865E2,2.5466179E2,2.564688E1,3.7019176E1,2.1764261E2,1.9617264E1,6.029617E0,9.230352E0,2.7788824E1,2.0437875E2,1.3263849E1,1.425825E1,5.359013E0,4.284948E0,1.7446687E0,7.0562882E0,2.1740646E0,2.5590996E1,2.1978266E0,1.0093812E1,1.9428494E2,7.332823E0,5.9310265E0,1.1815885E1,2.442366E0,3.4130008E0,1.9460124E0,1.2237663E0,5.832522E0,2.3873621E1,1.717375E0,5.8230653E0,4.270747E0,7.899626E0,1.8638531E2,3.2005506E0,4.1322722E0,1.4696635E0,1.0346221E1,1.225004E0,1.2173619E0,1.900904E1,4.8645806E0,1.6739552E0,4.1491103E0,1.2271777E0,6.6724477E0,1.8489186E2,1.4934633E0,2.8997102E0,1.2325618E0,9.12775E0,1.2184707E0,1.7066387E0,1.7302402E1,2.1718187E0,2.692762E0,2.9527576E0,1.1963527E0,4.746227E0,1.9262209E0,1.9357202E0,1.8295615E2,1.4155771E1,3.1466312E0,1.4822637E0,1.2104982E0,1.2249753E0,1.7277821E0,1.8174957E2,1.2065625E0,1.6780981E0,1.4685333E0,2.2474318E1,1.5927525E2,2.0518492E1,1.9558246E0,1.5808025E2,1.1950177E0],"tree_param":{"num_deleted":"0","num_feature":"2079","num_nodes":"79","size_leaf_vector":"0"}},{"base_weights":[-9.893056E-1,-1.1035872E0,1.3837212E-1,-2.4481027E-1,-1.2236245E0,5.274495E-1,-1.0233943E0,4.3475527E-1,-7.576649E-1,-4.6723E-1,-1.2713144E0,9.9255E-1,-4.9700508E-1,-1.2944747E0,-1.349465E-1,9.8915666E-1,-3.8630122E-1,9.233476E-2,-1.1767237E0,3.8088962E-1,-9.253288E-1,-1.2822622E0,3.2372147E-1,1.1981809E0,7.159918E-2,-1.0782733E0,1.0276867E0,1.3502922E0,-2.3028688E-1,-8.6206174E-1,7.533533E-1,-9.370078E-1,7.4631613E-1,-1.4084274E0,2.1927574E-1,-5.7409537E-1,1.0896848E0,2.9452518E-1,-1.314781E0,-5.0159186E-1,-1.3106736E0,1.3839663E0,6.644248E-2,-1.0006715E0,1.018277E0,-1.3075091E0,-1.3532116E-1,-1.2484273E0,2.1001104E-1,1.2675183E0,-2.998477E-1,6.928913E-1,-1.0649538E0,-4.3551227E-1,-1.3368754E0,1.1740388E0,-1.1248708E-1,-1.2965708E0,-2.6067333E-2,-1.2460254E0,5.621453E-1,-1.3618921E0,-4.0930852E-1,1.2454629E0,-5.454937E-1,-1.3747513E0,1.6326636E-1,-9.411515E-1,8.303645E-1,-1.4064915E0,-7.3540866E-1,-9.8155156E-2,-1.1781498E0,-1.4187089E0,-1.989388E-1,5.663676E-1,-1.3847173E0],"categories":[],"categories_nodes":[],"categories_segments":[],"categories_sizes":[],"default_left":[true,true,true,true,true,true,true,true,true,true,true,true,true,false,false,true,true,true,true,true,true,true,false,true,true,true,false,false,false,true,false,false,true,false,false,false,false,false,false,true,true,false,false,false,false,false,false,false,false,false,false,true,true,true,true,false,false,false,false,false,true,true,true,false,false,true,false,true,false,true,true,false,false,false,false,false,false],"id":7,"left_children":[1,3,5,7,9,11,13,15,17,19,21,23,25,-1,-1,27,29,31,33,35,37,39,-1,41,43,45,-1,-1,-1,47,-1,-1,49,-1,-1,-1,-1,-1,-1,51,53,-1,-1,-1,-1,-1,-1,-1,-1,-1,-1,55,57,59,61,-1,-1,-1,-1,-1,63,65,67,-1,-1,69,-1,71,-1,73,75,-1,-1,-1,-1,-1,-1],"loss_changes":[3.5880554E1,2.5660858E1,1.2472495E1,1.1528671E1,7.367218E0,1.0230406E1,1.5023055E0,6.9624414E0,6.76171E0,6.0523705E0,4.0302734E0,2.6390495E0,7.3537602E0,0E0,0E0,4.23485E0,4.198646E0,5.475389E0,4.3788986E0,4.5877714E0,5.051154E0,3.9076538E0,0E0,2.367815E0,4.764497E0,1.0314131E0,0E0,0E0,0E0,2.3682055E0,0E0,0E0,3.0491972E0,0E0,0E0,0E0,0E0,0E0,0E0,6.691577E0,3.9574585E0,0E0,0E0,0E0,0E0,0E0,0E0,0E0,0E0,0E0,0E0,1.4655868E0,1.5076733E0,6.553253E0,3.8917236E0,0E0,0E0,0E0,0E0,0E0,3.6565933E0,3.8776245E0,5.0439506E0,0E0,0E0,2.716156E0,0E0,8.818674E-1,0E0,2.299286E0,9.944462E0,0E0,0E0,0E0,0E0,0E0,0E0],"parents":[2147483647,0,0,1,1,2,2,3,3,4,4,5,5,6,6,7,7,8,8,9,9,10,10,11,11,12,12,15,15,16,16,17,17,18,18,19,19,20,20,21,21,23,23,24,24,25,25,29,29,32,32,39,39,40,40,51,51,52,52,53,53,54,54,60,60,61,61,62,62,65,65,67,67,69,69,70,70],"right_children":[2,4,6,8,10,12,14,16,18,20,22,24,26,-1,-1,28,30,32,34,36,38,40,-1,42,44,46,-1,-1,-1,48,-1,-1,50,-1,-1,-1,-1,-1,-1,52,54,-1,-1,-1,-1,-1,-1,-1,-1,-1,-1,56,58,60,62,-1,-1,-1,-1,-1,64,66,68,-1,-1,70,-1,72,-1,74,76,-1,-1,-1,-1,-1,-1],"split_conditions":[5E-1,4.104125E3,3.6058154E0,5.08E2,2.8452382E0,2.752575E0,8.275906E3,6.6025E3,6.75E1,9.5E0,3.25E1,1.3444294E1,2.6250277E1,-6.472374E-2,-6.747325E-3,9.55E1,8.6345E3,4.5E0,7.640635E5,1.385E2,2.5E0,1.815E2,1.6186073E-2,3.636E3,2.88E2,3.0492E4,5.1384337E-2,6.751461E-2,-1.1514344E-2,1.1866E4,3.7667666E-2,-4.685039E-2,6.455E2,-7.042137E-2,1.0963787E-2,-2.8704768E-2,5.4484244E-2,1.4726259E-2,-6.573905E-2,2.6202927E0,4.246E3,6.919832E-2,3.3221242E-3,-5.0033577E-2,5.091385E-2,-6.5375455E-2,-6.766058E-3,-6.2421363E-2,1.0500552E-2,6.337591E-2,-1.4992385E-2,3.91775E4,4.1796E4,1.715E2,1.1901057E0,5.870194E-2,-5.624354E-3,-6.482854E-2,-1.3033667E-3,-6.2301274E-2,3.42815E4,9.75E1,7.30305E4,6.2273145E-2,-2.7274687E-2,3.9685926E0,8.163318E-3,1.9265E4,4.1518226E-2,1.5E1,5.557E3,-4.907758E-3,-5.890749E-2,-7.093545E-2,-9.9469405E-3,2.8318381E-2,-6.923587E-2],"split_indices":[1913,1783,279,1072,978,1191,1591,1109,120,1197,1759,1630,1641,0,0,117,1797,421,103,1085,2061,907,0,138,109,1782,0,0,0,378,0,0,177,0,0,0,0,0,0,1734,1797,0,0,0,0,0,0,0,0,0,0,64,830,106,616,0,0,0,0,0,64,1071,831,0,0,1488,0,1195,0,191,1815,0,0,0,0,0,0],"split_type":[0,0,0,0,0,0,0,0,0,0,0,0,0,0,0,0,0,0,0,0,0,0,0,0,0,0,0,0,0,0,0,0,0,0,0,0,0,0,0,0,0,0,0,0,0,0,0,0,0,0,0,0,0,0,0,0,0,0,0,0,0,0,0,0,0,0,0,0,0,0,0,0,0,0,0,0,0],"sum_hessian":[2.7623337E2,2.5083455E2,2.53988E1,3.113395E1,2.197006E2,1.9435736E1,5.9630647E0,1.3456071E1,1.767788E1,1.3670761E1,2.0602985E2,1.3388515E1,6.0472193E0,4.218823E0,1.7442414E0,7.9101615E0,5.5459094E0,6.0949073E0,1.1582972E1,4.853529E0,8.817232E0,2.0482013E2,1.2097194E0,1.0698678E1,2.6898384E0,4.5900984E0,1.4571209E0,6.0200386E0,1.890123E0,4.0844073E0,1.4615018E0,2.1997724E0,3.895135E0,9.926499E0,1.6564724E0,2.1486359E0,2.7048929E0,2.1927567E0,6.624476E0,7.847446E0,1.9697267E2,8.998605E0,1.7000724E0,1.2345123E0,1.455326E0,3.3814428E0,1.2086558E0,2.8814573E0,1.2029501E0,2.4586442E0,1.4364909E0,2.4412975E0,5.4061484E0,6.2380657E0,1.907346E2,1.2417225E0,1.1995751E0,4.2177687E0,1.1883796E0,3.304492E0,2.933574E0,1.852696E2,5.465005E0,1.7373493E0,1.1962248E0,1.8381837E2,1.4512266E0,3.992818E0,1.472187E0,1.7398117E2,9.83721E0,1.1865288E0,2.8062892E0,1.7206543E2,1.9157338E0,3.316271E0,6.5209384E0],"tree_param":{"num_deleted":"0","num_feature":"2079","num_nodes":"77","size_leaf_vector":"0"}},{"base_weights":[-9.5607424E-1,-1.0668751E0,1.3227767E-1,-3.063023E-1,-1.1957382E0,5.093794E-1,-9.930865E-1,6.357294E-1,-6.3195366E-1,-2.7279314E-1,-1.2244841E0,9.885735E-1,-4.0054384E-1,-1.2598637E0,-1.3068008E-1,9.6431816E-1,-5.123989E-1,-8.25727E-1,1.1572416E0,-9.466157E-1,8.1881726E-1,-5.151679E-1,-1.2604705E0,1.3160435E0,3.6555764E-1,3.7035084E-1,-1.0770448E0,1.3757647E0,-1.8498784E-2,-9.6802926E-1,7.600339E-1,-6.753967E-2,-1.1893891E0,1.0874166E0,1.7977239E-1,6.773931E-1,-9.0453994E-1,-1.2747527E0,2.4292418E-1,-7.6619905E-1,1.2121594E0,1.0952148E0,-6.4711225E-1,9.0793884E-1,-9.303847E-1,-1.0967563E0,3.464539E-1,-1.1539588E-1,1.1454042E0,-1.1595113E0,4.280111E-1,-1.2930856E0,-2.7961713E-1,3.2826084E-1,-1.2125008E0,-1.3326365E0,-2.1211898E-1,-5.196013E-1,-1.3221688E0,-1.0783415E0,8.9516205E-1,-1.4118325E0,-1.3122879E-1,-1.2332354E0,2.8321055E-1,-1.3443803E0,-4.0114146E-1,-1.4944217E0,-1.549804E-1,-9.780701E-1,6.171069E-1,8.6484957E-1,-8.3714306E-1,-1.3561023E0,2.0735461E-2,5.295549E-1,-1.1210824E0,1.3435297E0,-7.166195E-2,-8.89582E-1,-1.4027401E0],"categories":[],"categories_nodes":[],"categories_segments":[],"categories_sizes":[],"default_left":[true,true,true,true,true,true,true,true,true,true,true,true,true,false,false,true,false,true,false,true,true,true,true,false,true,true,false,false,true,true,false,false,false,false,false,true,true,true,false,false,false,false,false,false,false,true,false,false,false,true,false,true,true,false,true,false,false,true,true,false,false,true,true,false,true,true,true,false,false,false,false,true,false,true,false,false,false,false,false,false,false],"id":8,"left_children":[1,3,5,7,9,11,13,15,17,19,21,23,25,-1,-1,27,-1,29,-1,31,33,35,37,-1,39,41,-1,-1,43,45,-1,-1,-1,-1,-1,47,49,51,-1,-1,-1,-1,-1,-1,-1,53,-1,-1,-1,55,-1,57,59,-1,61,-1,-1,63,65,-1,-1,67,69,-1,71,73,75,-1,-1,-1,-1,77,-1,79,-1,-1,-1,-1,-1,-1,-1],"loss_changes":[3.304947E1,2.3919464E1,1.1584163E1,1.1827391E1,5.278473E0,9.209799E0,1.4207888E0,4.2916884E0,1.0724956E1,6.4214687E0,4.580078E0,2.2791128E0,4.4065285E0,0E0,0E0,3.3305326E0,0E0,6.604721E0,0E0,1.0316305E0,3.9945412E-1,5.9913626E0,4.4812927E0,0E0,6.721507E0,3.9065375E0,0E0,0E0,3.715941E0,4.4928665E0,0E0,0E0,0E0,0E0,0E0,1.4021628E0,3.608613E0,3.1524963E0,0E0,0E0,0E0,0E0,0E0,0E0,0E0,4.089079E0,0E0,0E0,0E0,1.022686E0,0E0,3.561432E0,5.431889E0,0E0,4.321594E0,0E0,0E0,5.213981E0,3.1709595E0,0E0,0E0,1.5904579E0,3.3648756E0,0E0,3.8578515E0,2.8551636E0,4.410309E0,0E0,0E0,0E0,0E0,1.7359161E0,0E0,2.5636597E0,0E0,0E0,0E0,0E0,0E0,0E0,0E0],"parents":[2147483647,0,0,1,1,2,2,3,3,4,4,5,5,6,6,7,7,8,8,9,9,10,10,11,11,12,12,15,15,17,17,19,19,20,20,21,21,22,22,24,24,25,25,28,28,29,29,35,35,36,36,37,37,45,45,49,49,51,51,52,52,54,54,57,57,58,58,61,61,62,62,64,64,65,65,66,66,71,71,73,73],"right_children":[2,4,6,8,10,12,14,16,18,20,22,24,26,-1,-1,28,-1,30,-1,32,34,36,38,-1,40,42,-1,-1,44,46,-1,-1,-1,-1,-1,48,50,52,-1,-1,-1,-1,-1,-1,-1,54,-1,-1,-1,56,-1,58,60,-1,62,-1,-1,64,66,-1,-1,68,70,-1,72,74,76,-1,-1,-1,-1,78,-1,80,-1,-1,-1,-1,-1,-1,-1],"split_conditions":[5E-1,1.9166667E0,3.6058154E0,2.368409E1,4.246E3,1.3477606E1,5.20365E4,3.934874E0,8.895E2,1.7E1,9.5E0,1.8E0,7E0,-6.299319E-2,-6.534004E-3,1.5E0,-2.5619945E-2,2.17925E4,5.786208E-2,6.639455E0,1.5E1,3.8010392E0,5E-1,6.580218E-2,2.3E1,6.0147E4,-5.385224E-2,6.878824E-2,1.6111112E0,1.1901057E0,3.8001698E-2,-3.3769836E-3,-5.9469458E-2,5.437083E-2,8.98862E-3,1.5E0,8.74094E-1,9.25E1,1.2146209E-2,-3.8309954E-2,6.060797E-2,5.4760743E-2,-3.2355614E-2,4.5396943E-2,-4.6519235E-2,3.5450695E0,1.7322695E-2,-5.7697943E-3,5.727021E-2,3.7365E3,2.1400554E-2,3.95E1,3.5E0,1.6413042E-2,2.2448484E4,-6.6631824E-2,-1.0605949E-2,2.5E0,1.7E1,-5.3917076E-2,4.4758104E-2,5E-1,2.8333335E0,-6.166177E-2,1.0686599E1,2.2E1,1.4E2,-7.472109E-2,-7.7490206E-3,-4.8903506E-2,3.0855346E-2,1.5E0,-4.1857153E-2,7.5E0,1.0367731E-3,2.6477745E-2,-5.6054123E-2,6.717648E-2,-3.5830976E-3,-4.44791E-2,-7.013701E-2],"split_indices":[1913,1156,279,1627,1797,1188,1153,1105,943,834,1116,1882,1982,0,0,1858,0,1808,0,1641,384,1681,1003,0,421,1806,0,0,978,1688,0,0,0,0,0,1882,1570,1081,0,0,0,0,0,0,0,1616,0,0,0,937,0,121,843,0,1560,0,0,421,372,0,0,1320,978,0,1630,1024,1046,0,0,0,0,262,0,1159,0,0,0,0,0,0,0],"split_type":[0,0,0,0,0,0,0,0,0,0,0,0,0,0,0,0,0,0,0,0,0,0,0,0,0,0,0,0,0,0,0,0,0,0,0,0,0,0,0,0,0,0,0,0,0,0,0,0,0,0,0,0,0,0,0,0,0,0,0,0,0,0,0,0,0,0,0,0,0,0,0,0,0,0,0,0,0,0,0,0,0],"sum_hessian":[2.7189383E2,2.4678896E2,2.5104881E1,3.62445E1,2.1054446E2,1.9213825E1,5.8910546E0,9.066139E0,2.7178358E1,6.6763663E0,2.038681E2,1.2529147E1,6.6846786E0,4.147267E0,1.7437876E0,7.173278E0,1.892862E0,2.5008392E1,2.1699653E0,4.2102904E0,2.4660757E0,1.0583146E1,1.9328494E2,7.4833627E0,5.045785E0,3.3358824E0,3.3487961E0,4.774615E0,2.3986628E0,2.3306477E1,1.7019169E0,1.187735E0,3.0225556E0,1.2422943E0,1.2237813E0,2.4228334E0,8.160313E0,1.9161668E2,1.6682603E0,2.1998909E0,2.8458939E0,1.9034228E0,1.4324595E0,1.1919849E0,1.2066779E0,2.137852E1,1.9279575E0,1.1790358E0,1.2437977E0,6.958688E0,1.2016249E0,1.878565E2,3.760184E0,1.4680586E0,1.991046E1,5.539729E0,1.4189588E0,7.491182E0,1.8036533E2,2.2872133E0,1.4729707E0,1.655318E1,3.3572795E0,3.682021E0,3.809161E0,1.7566925E2,4.696074E0,1.5355154E1,1.1980262E0,1.430962E0,1.9263175E0,2.6575387E0,1.1516223E0,1.7418019E2,1.4890558E0,2.1635776E0,2.5324962E0,1.4710356E0,1.186503E0,1.7654612E1,1.5652559E2],"tree_param":{"num_deleted":"0","num_feature":"2079","num_nodes":"81","size_leaf_vector":"0"}},{"base_weights":[-9.249886E-1,-3.0195162E-1,-1.1116573E0,-6.6372776E-1,7.2870827E-1,-1.259091E0,-6.8762654E-1,2.3925735E-1,-9.3688816E-1,1.1131617E0,-3.4623992E-1,-1.2779953E0,3.8398495E-1,1.4377882E-1,-9.637745E-1,1.1705009E0,-4.385172E-1,-1.7066279E-1,-1.1059995E0,1.3782328E0,-1.1008659E-1,-1.0051081E0,9.934497E-1,-2.5264642E-1,-1.3046024E0,7.674285E-1,-9.9956095E-1,-1.1243129E0,2.3199669E-1,-8.958093E-1,6.1002684E-1,5.7206213E-1,-1.1322249E0,-1.2201861E0,1.3739684E-1,-1.1025468E0,8.700154E-1,-1.3209857E0,8.603794E-2,-2.2435786E-2,1.2478813E0,-6.351663E-2,-1.2266926E0,3.5665712E-1,-1.1917241E0,-6.6227925E-1,9.523687E-1,-1.1883036E0,-1.1824653E-1,-5.8547723E-1,1.1645907E0,-1.3050216E0,3.5415182E-1,1.0575012E0,-8.688831E-1,-1.3375694E0,-3.5282638E-2,6.3893926E-1,-9.4900393E-1,1.4531983E0,1.857196E-1,-2.9855564E-1,-1.3234798E0,-1.3610165E0,-4.9834594E-2,-1.358745E0,-2.6343864E-1,1.0788326E0,-1.0218725E-1,-8.034527E-1,6.2540746E-1,-1.3722496E0,-4.677987E-2,-1.4259943E-1,-1.4153916E0,-1.3867676E0,-5.9746236E-1,5.625525E-1,-9.364162E-1,-5.1945753E-2,-1.0702443E0,-1.4236559E0,-6.2394757E-2,-1.475581E0,-6.0560423E-1,-3.320354E-1,-1.3989538E0,8.2886565E-1,-1.063958E0,-3.7885723E-1,-1.453469E0,-5.79144E-2,-8.7425303E-1,-1.4120624E0,-3.7639886E-1,-3.2942748E-1,-1.1767129E0],"categories":[],"categories_nodes":[],"categories_segments":[],"categories_sizes":[],"default_left":[true,true,true,true,true,true,true,true,true,true,true,true,false,true,true,false,true,true,true,false,false,false,false,true,true,true,true,true,true,true,false,true,false,true,true,false,false,true,false,true,true,false,false,false,true,false,false,false,false,false,false,true,false,false,false,true,false,true,false,false,false,true,true,true,false,true,true,false,false,true,false,true,false,false,true,true,true,false,false,false,false,true,false,false,true,false,true,false,true,false,false,false,false,false,false,false,false],"id":9,"left_children":[1,3,5,7,9,11,13,15,17,19,21,23,-1,25,27,-1,29,31,33,-1,-1,-1,-1,35,37,39,41,43,45,47,-1,49,-1,51,53,-1,-1,55,-1,57,59,-1,-1,-1,61,-1,-1,-1,-1,-1,-1,63,-1,-1,-1,65,-1,67,-1,-1,-1,69,71,73,-1,75,77,-1,-1,79,-1,81,-1,-1,83,85,87,-1,-1,-1,-1,89,-1,-1,91,-1,93,-1,95,-1,-1,-1,-1,-1,-1,-1,-1],"loss_changes":[3.0861725E1,2.4054144E1,1.2014572E1,1.1894461E1,7.3699007E0,5.2019043E0,1.2848265E1,7.95174E0,4.5444794E0,4.2650375E0,5.601626E0,3.7675323E0,0E0,1.1229351E1,8.263046E0,0E0,4.1658006E0,6.2088933E0,4.3903084E0,0E0,0E0,0E0,0E0,5.7668695E0,3.4432068E0,3.8455863E0,1.1154289E0,4.111141E0,4.343321E0,1.1470132E0,0E0,4.1507936E0,0E0,4.1138344E0,4.067167E0,0E0,0E0,3.0338135E0,0E0,3.5399177E0,1.0980501E0,0E0,0E0,0E0,3.7878265E0,0E0,0E0,0E0,0E0,0E0,0E0,1.7705574E0,0E0,0E0,0E0,2.8863068E0,0E0,1.2157322E0,0E0,0E0,0E0,3.2365334E0,1.8463593E0,1.4545479E0,0E0,2.1503296E0,2.7491937E0,0E0,0E0,7.919955E-1,0E0,1.8989105E0,0E0,0E0,2.6744843E-1,1.2567749E0,5.3494806E0,0E0,0E0,0E0,0E0,3.3270264E-1,0E0,0E0,4.4142067E-1,0E0,1.2389526E0,0E0,6.767225E-2,0E0,0E0,0E0,0E0,0E0,0E0,0E0,0E0],"parents":[2147483647,0,0,1,1,2,2,3,3,4,4,5,5,6,6,7,7,8,8,9,9,10,10,11,11,13,13,14,14,16,16,17,17,18,18,23,23,24,24,25,25,26,26,27,27,28,28,29,29,31,31,33,33,34,34,37,37,39,39,40,40,44,44,51,51,55,55,57,57,61,61,62,62,63,63,65,65,66,66,69,69,71,71,74,74,75,75,76,76,81,81,84,84,86,86,88,88],"right_children":[2,4,6,8,10,12,14,16,18,20,22,24,-1,26,28,-1,30,32,34,-1,-1,-1,-1,36,38,40,42,44,46,48,-1,50,-1,52,54,-1,-1,56,-1,58,60,-1,-1,-1,62,-1,-1,-1,-1,-1,-1,64,-1,-1,-1,66,-1,68,-1,-1,-1,70,72,74,-1,76,78,-1,-1,80,-1,82,-1,-1,84,86,88,-1,-1,-1,-1,90,-1,-1,92,-1,94,-1,96,-1,-1,-1,-1,-1,-1,-1,-1],"split_conditions":[4.3650794E0,1.2E2,2.105E2,5.731E3,3.466793E0,2.2E1,7.994E3,7.5E0,7.9E1,3.984E3,1.5E0,4.128E3,1.9199248E-2,5E-1,5E-1,5.8525044E-2,8.294091E0,1.50515E-1,3.56E2,6.891164E-2,-5.5043297E-3,-5.0255407E-2,4.9672484E-2,3.5E0,9.464527E0,2.0026975E0,3.702E3,5.4E1,2.4895E3,2.5E0,3.0501341E-2,1.59039E5,-5.6611247E-2,5.86E2,1.1416507E0,-5.512734E-2,4.350077E-2,2.5E0,4.3018973E-3,3.162773E6,2.622282E0,-3.1758316E-3,-6.133463E-2,1.7832857E-2,7.85E1,-3.3113964E-2,4.7618434E-2,-5.941518E-2,-5.9123267E-3,-2.9273862E-2,5.8229536E-2,2.5E0,1.7707592E-2,5.287506E-2,-4.3444153E-2,9.9632E4,-1.764132E-3,7.9E1,-4.7450196E-2,7.265992E-2,9.28598E-3,1.978E4,3.5E2,2.5E0,-2.4917298E-3,2.25E1,2E0,5.3941634E-2,-5.109363E-3,2.98965E4,3.1270374E-2,8.9E1,-2.3389936E-3,-7.129972E-3,3.5E0,1.060287E0,7.5E0,2.8127626E-2,-4.6820812E-2,-2.5972878E-3,-5.3512216E-2,5.12E2,-3.1197378E-3,-7.3779054E-2,1.3E1,-1.660177E-2,4.836E3,4.1443285E-2,2.5E0,-1.894286E-2,-7.2673455E-2,-2.89572E-3,-4.3712653E-2,-7.0603125E-2,-1.8819943E-2,-1.6471375E-2,-5.8835644E-2],"split_indices":[978,933,170,1109,279,1024,1794,46,1927,146,61,1797,0,593,355,0,1566,1743,1075,0,0,0,0,992,1733,966,178,1075,806,841,0,1810,0,136,400,0,0,1507,0,164,1574,0,0,0,1047,0,0,0,0,0,0,762,0,0,0,831,0,117,0,0,0,1801,953,2028,0,413,415,0,0,1817,0,417,0,0,841,826,1201,0,0,0,0,141,0,0,1984,0,1314,0,60,0,0,0,0,0,0,0,0],"split_type":[0,0,0,0,0,0,0,0,0,0,0,0,0,0,0,0,0,0,0,0,0,0,0,0,0,0,0,0,0,0,0,0,0,0,0,0,0,0,0,0,0,0,0,0,0,0,0,0,0,0,0,0,0,0,0,0,0,0,0,0,0,0,0,0,0,0,0,0,0,0,0,0,0,0,0,0,0,0,0,0,0,0,0,0,0,0,0,0,0,0,0,0,0,0,0,0,0],"sum_hessian":[2.6724573E2,6.2213985E1,2.0503175E2,4.631336E1,1.5900626E1,1.5067375E2,5.4358006E1,1.0785127E1,3.5528233E1,1.1685704E1,4.214922E0,1.4917957E2,1.4941827E0,1.367268E1,4.0685326E1,4.2368436E0,6.5482826E0,6.786861E0,2.8741371E1,9.500335E0,2.1853697E0,2.9927924E0,1.2221296E0,4.0386558E0,1.4514091E2,9.05972E0,4.61296E0,3.592233E1,4.7629957E0,4.66113E0,1.8871529E0,4.0577016E0,2.7291594E0,2.6341022E1,2.4003475E0,2.3087533E0,1.7299024E0,1.4350041E2,1.6404991E0,3.7870736E0,5.272646E0,1.1506401E0,3.4623199E0,1.3771307E0,3.4545197E1,2.1609797E0,2.6020162E0,3.0031857E0,1.6579442E0,1.3778641E0,2.6798375E0,2.5156494E1,1.1845286E0,1.2272735E0,1.173074E0,1.4163321E2,1.8672074E0,2.3908982E0,1.3961754E0,4.1100225E0,1.1626235E0,4.8606896E0,2.968451E1,2.400146E1,1.1550356E0,1.3863516E2,2.998051E0,1.2144182E0,1.1764802E0,3.2274735E0,1.6332161E0,2.85202E1,1.1643083E0,1.180127E0,2.2821331E1,1.3292076E2,5.714403E0,1.4196734E0,1.5783775E0,1.1585995E0,2.0688741E0,2.7359571E1,1.1606293E0,2.0477135E1,2.344197E0,1.8408234E0,1.3107993E2,1.2168988E0,4.4975047E0,1.1393371E0,2.6220234E1,1.1714857E0,1.1727114E0,1.2904472E2,2.0352077E0,1.1203989E0,3.3771057E0],"tree_param":{"num_deleted":"0","num_feature":"2079","num_nodes":"97","size_leaf_vector":"0"}},{"base_weights":[-8.9658254E-1,-4.7579184E-2,-1.025415E0,-4.428275E-1,7.623697E-1,-1.1852716E0,-5.602717E-1,9.822104E-1,-6.831827E-1,1.2491629E0,7.974646E-2,-1.2013632E0,3.725664E-1,1.1370007E0,-6.859655E-1,-1.071885E0,2.1315019E-1,-6.232834E-1,8.666928E-1,-6.0169196E-1,-1.2521601E0,5.7112294E-1,-8.3334225E-1,-1.3388304E0,8.94091E-2,-6.548631E-1,7.449608E-1,-1.0255582E0,1.6174935E-1,-9.446513E-1,5.430801E-1,-1.3120393E0,-7.024196E-1,-5.477551E-1,9.7079724E-1,-9.466733E-1,7.115632E-1,-1.3969823E0,-3.9612553E-1,7.7812904E-1,-8.141846E-1,-1.077981E-1,-8.939201E-1,-2.0596603E-1,1.0895241E0,6.4899015E-1,-1.1837037E0,-5.326655E-1,1.2960898E0,3.5234746E-1,-1.3288331E0,-9.03664E-1,7.3155755E-1,1.2807132E0,7.752232E-2,4.5316637E-1,-1.0774484E0,1.1385133E0,-1.9681992E-1,-1.3135475E-1,-1.3257295E0,-3.047299E-1,-1.3492543E0,4.5247072E-1,-1.0461912E0,1.0466979E0,-4.2911237E-1,-1.1521405E0,6.916624E-1,6.60531E-1,-9.563781E-1,-1.3608683E0,-3.0973044E-3,-1.221455E0,3.7503237E-1,-3.220178E-2,-1.2514249E0,-4.1179666E-1,-1.3780274E0,-2.9838392E-1,-1.3433689E0,6.87758E-1,-9.5444196E-1,-1.3035085E0,9.560505E-2,4.1090322E-1,-9.4650185E-1,-1.3904603E0,-4.0557474E-1,-1.3685749E0,-1.2041233E-1],"categories":[],"categories_nodes":[],"categories_segments":[],"categories_sizes":[],"default_left":[true,true,true,true,true,true,true,false,true,false,true,true,false,false,true,true,true,true,false,true,true,true,true,true,true,true,true,false,false,true,true,true,true,false,true,true,true,false,false,false,false,false,false,false,false,false,true,false,false,false,true,true,false,false,false,true,true,false,false,false,false,true,true,false,true,false,false,true,false,false,false,true,false,true,false,true,true,true,true,false,false,false,false,true,false,false,false,false,false,false,false],"id":10,"left_children":[1,3,5,7,9,11,13,-1,15,-1,17,19,-1,-1,21,23,25,27,-1,29,31,33,35,37,39,41,43,-1,-1,45,47,49,51,-1,53,55,57,-1,-1,-1,-1,-1,-1,-1,-1,-1,59,-1,-1,-1,61,63,-1,-1,-1,65,67,-1,-1,-1,-1,69,71,-1,73,-1,-1,75,-1,-1,-1,77,-1,79,-1,81,83,85,87,-1,-1,-1,-1,89,-1,-1,-1,-1,-1,-1,-1],"loss_changes":[2.8757858E1,1.178154E1,1.6335037E1,9.1163225E0,3.91818E0,4.690277E0,1.3659086E1,0E0,7.7846937E0,0E0,3.9157293E0,4.356613E0,0E0,0E0,1.1004816E1,4.860735E0,3.90123E0,1.3672322E0,0E0,6.4121323E0,4.1388245E0,3.4639206E0,9.651016E0,1.3174629E-1,2.995781E0,3.406242E-1,1.8800364E0,0E0,0E0,5.311844E0,4.0105076E0,4.3108673E0,5.6396656E0,0E0,1.3380356E0,9.311794E0,1.8045838E0,0E0,0E0,0E0,0E0,0E0,0E0,0E0,0E0,0E0,1.4288416E0,0E0,0E0,0E0,2.4395752E0,3.4840364E0,0E0,0E0,0E0,2.9742644E0,6.660824E0,0E0,0E0,0E0,0E0,3.1205409E0,2.0807343E0,0E0,4.0441628E0,0E0,0E0,4.73592E0,0E0,0E0,0E0,1.5856476E0,0E0,1.0678806E0,0E0,3.6604562E0,2.8909683E0,2.0491674E0,1.0010071E0,0E0,0E0,0E0,0E0,2.7628021E0,0E0,0E0,0E0,0E0,0E0,0E0,0E0],"parents":[2147483647,0,0,1,1,2,2,3,3,4,4,5,5,6,6,8,8,10,10,11,11,14,14,15,15,16,16,17,17,19,19,20,20,21,21,22,22,23,23,24,24,25,25,26,26,29,29,30,30,31,31,32,32,34,34,35,35,36,36,46,46,50,50,51,51,55,55,56,56,61,61,62,62,64,64,67,67,71,71,73,73,75,75,76,76,77,77,78,78,83,83],"right_children":[2,4,6,8,10,12,14,-1,16,-1,18,20,-1,-1,22,24,26,28,-1,30,32,34,36,38,40,42,44,-1,-1,46,48,50,52,-1,54,56,58,-1,-1,-1,-1,-1,-1,-1,-1,-1,60,-1,-1,-1,62,64,-1,-1,-1,66,68,-1,-1,-1,-1,70,72,-1,74,-1,-1,76,-1,-1,-1,78,-1,80,-1,82,84,86,88,-1,-1,-1,-1,90,-1,-1,-1,-1,-1,-1,-1],"split_conditions":[4.104125E3,1.025E2,2.105E2,1.55E1,1.61E2,2.2E1,3.1666665E0,4.911052E-2,1.5E0,6.2458146E-2,2.2253094E0,3.6458087E0,1.862832E-2,5.6850035E-2,1.865E2,1.4574744E3,3.45E1,1.2496634E1,4.333464E-2,2.5E0,3.8243837E0,2.5E0,2.5E0,1.4E1,2.5E0,9.823E3,4.239E3,-5.1277913E-2,8.087467E-3,1.45E1,4.565E2,3.242835E5,9.009E3,-2.7387757E-2,2.37255E4,4.698E3,3.5450676E1,-6.984912E-2,-1.9806277E-2,3.890645E-2,-4.070923E-2,-5.389905E-3,-4.4696007E-2,-1.02983015E-2,5.447621E-2,3.244951E-2,8.038155E0,-2.6633276E-2,6.480449E-2,1.7617373E-2,2.6458335E0,7.2E1,3.6577877E-2,6.403566E-2,3.8761161E-3,6.34215E4,1.3323209E0,5.6925666E-2,-9.840996E-3,-6.5677376E-3,-6.6286474E-2,1E0,5E-1,2.2623537E-2,2.5E0,5.2334893E-2,-2.145562E-2,3.27115E4,3.4583118E-2,3.302655E-2,-4.7818907E-2,8.343046E2,-1.5486522E-4,1.55E1,1.875162E-2,5E-1,2.6998856E1,6.276E3,1.3E1,-1.4919196E-2,-6.7168444E-2,3.43879E-2,-4.7722097E-2,2.10365E4,4.780253E-3,2.054516E-2,-4.7325093E-2,-6.9523014E-2,-2.0278737E-2,-6.842875E-2,-6.0206163E-3],"split_indices":[1783,933,170,1116,1047,1024,978,0,413,0,1574,1188,0,0,109,919,982,1188,0,413,1488,1863,1999,807,2018,286,1194,0,0,982,110,164,930,0,1824,1794,1643,0,0,0,0,0,0,0,0,0,1712,0,0,0,1883,1083,0,0,0,143,1486,0,0,0,0,1107,771,0,1992,0,0,1787,0,0,0,1704,0,1159,0,307,1567,286,1409,0,0,0,0,678,0,0,0,0,0,0,0],"split_type":[0,0,0,0,0,0,0,0,0,0,0,0,0,0,0,0,0,0,0,0,0,0,0,0,0,0,0,0,0,0,0,0,0,0,0,0,0,0,0,0,0,0,0,0,0,0,0,0,0,0,0,0,0,0,0,0,0,0,0,0,0,0,0,0,0,0,0,0,0,0,0,0,0,0,0,0,0,0,0,0,0,0,0,0,0,0,0,0,0,0,0],"sum_hessian":[2.6236505E2,3.4747696E1,2.2761734E2,2.365669E1,1.1091003E1,1.682473E2,5.937005E1,2.9687607E0,2.0687931E1,5.989686E0,5.101318E0,1.6675365E2,1.4936397E0,3.538815E0,5.5831234E1,1.4293554E1,6.3943768E0,2.8041565E0,2.2971613E0,1.4025362E1,1.5272829E2,5.5569057E0,5.027433E1,1.1497711E1,2.7958431E0,2.3413978E0,4.052979E0,1.651492E0,1.1526644E0,1.0926679E1,3.098683E0,1.3647627E2,1.6252012E1,1.3650311E0,4.1918745E0,4.719913E1,3.075199E0,1.037578E1,1.121931E0,1.6653571E0,1.1304859E0,1.1532339E0,1.188164E0,1.1849611E0,2.8680177E0,1.2015702E0,9.725109E0,1.396405E0,1.7022783E0,1.1637137E0,1.3531256E2,1.4576206E1,1.6758056E0,2.7901292E0,1.4017453E0,3.8220453E0,4.3377087E1,1.9196173E0,1.1555817E0,1.3853252E0,8.339784E0,2.9567282E0,1.3235583E2,1.1794274E0,1.3396779E1,2.1735115E0,1.6485339E0,4.1954506E1,1.4225806E0,1.1861296E0,1.7705986E0,1.3121284E2,1.1429873E0,1.20512E1,1.3455791E0,3.5243073E0,3.84302E1,2.7741296E0,1.2843872E2,1.8081669E0,1.0243033E1,2.1219947E0,1.4023124E0,3.7030697E1,1.3994988E0,1.1839823E0,1.5901473E0,1.26392944E2,2.045778E0,3.4951694E1,2.0790026E0],"tree_param":{"num_deleted":"0","num_feature":"2079","num_nodes":"91","size_leaf_vector":"0"}},{"base_weights":[-8.690482E-1,-9.725E-1,1.2742612E-1,-2.0471357E-1,-1.0826975E0,4.7411355E-1,-9.121382E-1,-4.2039093E-1,1.0854572E0,-3.262672E-1,-1.1263928E0,8.9694655E-1,-4.5054647E-1,-1.1703928E0,-1.1317304E-1,7.808816E-1,-6.027261E-1,-8.205166E-1,5.8788276E-1,-1.144227E0,3.2217416E-1,1.6422425E-1,1.1368179E0,-9.852381E-1,9.3944335E-1,1.0308483E0,8.126445E-2,-8.324443E-1,5.0983715E-1,3.5474333E-1,-1.0584131E0,1.3135049E0,-6.0566074E-1,-1.1833133E0,-4.9220604E-1,9.190414E-1,-4.5360455E-1,1.3208344E0,2.125363E-1,-1.2044426E0,-9.8834135E-2,2.7358282E-1,-1.0651728E0,1.0817277E0,-3.617629E-1,-1.2416751E0,-4.122112E-2,-2.8653327E-1,-1.2065932E0,1.9613956E-1,-1.2271988E0,-6.6668385E-1,1.0841392E0,5.1871693E-1,-1.2188284E0,6.0044444E-1,-7.761355E-1,-1.2188004E0,-5.1973145E-2,1.1498109E0,-4.2679507E-1,-1.3499079E0,7.878763E-2,-3.4802422E-2,-1.0467688E0,-6.837087E-1,-1.2548952E0,-1.0666183E0,4.4272086E-1,-4.1494328E-1,-1.3977718E0,-9.44556E-1,4.767726E-1,-1.269747E0,-2.5804645E-1,-1.1402262E0,3.7800753E-1,-1.2795535E0,4.4314984E-2,-8.629341E-1,5.729808E-1],"categories":[],"categories_nodes":[],"categories_segments":[],"categories_sizes":[],"default_left":[true,true,true,true,true,true,true,true,false,true,true,true,true,false,false,true,true,true,true,true,false,true,true,true,false,false,false,true,true,false,true,false,false,true,true,false,false,false,false,false,false,true,true,false,false,false,false,true,true,true,false,false,false,false,true,false,true,true,false,false,true,true,false,false,false,true,true,false,false,false,false,true,false,true,true,false,false,false,false,false,false],"id":11,"left_children":[1,3,5,7,9,11,13,15,-1,17,19,21,23,-1,-1,25,27,29,31,33,-1,35,37,39,-1,-1,-1,41,43,-1,45,-1,-1,47,49,-1,-1,-1,-1,-1,-1,51,53,-1,-1,-1,-1,55,57,59,-1,-1,-1,-1,61,-1,63,65,-1,-1,67,69,-1,-1,-1,71,73,-1,-1,-1,-1,75,-1,77,79,-1,-1,-1,-1,-1,-1],"loss_changes":[2.6746826E1,1.9583603E1,9.505282E0,8.974785E0,6.3907013E0,8.042341E0,1.2371588E0,6.373514E0,0E0,6.1635E0,5.351898E0,2.2282887E0,5.9764495E0,0E0,0E0,6.1349416E-1,6.548621E0,2.7740092E0,5.1216536E0,4.2793274E0,0E0,2.5423212E0,1.4511738E0,9.294424E-1,0E0,0E0,0E0,5.501601E0,2.744606E0,0E0,1.3255901E0,0E0,0E0,3.3968048E0,6.5654845E0,0E0,0E0,0E0,0E0,0E0,0E0,4.010934E0,4.751789E0,0E0,0E0,0E0,0E0,3.0053303E0,2.3950958E0,4.838003E0,0E0,0E0,0E0,0E0,2.7816353E0,0E0,8.069818E-1,2.47464E0,0E0,0E0,3.3405168E0,6.1763763E-2,0E0,0E0,0E0,4.4160967E0,2.047821E0,0E0,0E0,0E0,0E0,3.2859526E0,0E0,2.0906677E0,2.3093526E0,0E0,0E0,0E0,0E0,0E0,0E0],"parents":[2147483647,0,0,1,1,2,2,3,3,4,4,5,5,6,6,7,7,9,9,10,10,11,11,12,12,15,15,16,16,17,17,18,18,19,19,21,21,22,22,23,23,27,27,28,28,30,30,33,33,34,34,41,41,42,42,47,47,48,48,49,49,54,54,56,56,57,57,60,60,61,61,65,65,66,66,71,71,73,73,74,74],"right_children":[2,4,6,8,10,12,14,16,-1,18,20,22,24,-1,-1,26,28,30,32,34,-1,36,38,40,-1,-1,-1,42,44,-1,46,-1,-1,48,50,-1,-1,-1,-1,-1,-1,52,54,-1,-1,-1,-1,56,58,60,-1,-1,-1,-1,62,-1,64,66,-1,-1,68,70,-1,-1,-1,72,74,-1,-1,-1,-1,76,-1,78,80,-1,-1,-1,-1,-1,-1],"split_conditions":[5E-1,4.104125E3,3.6058154E0,5.59E2,9.5E0,2.752575E0,5.20365E4,1.55E1,5.427286E-2,7.19475E3,8.45E1,4.21966E1,2.6250277E1,-5.851964E-2,-5.658652E-3,8.5E0,2.855E2,4.770906E1,2.2552724E0,1.1300356E0,1.6108708E-2,4.45E1,1.18E2,9.95E2,4.6972167E-2,5.1542412E-2,4.0632226E-3,9.85E1,1.53E2,1.7737167E-2,3.7365E3,6.567525E-2,-3.0283038E-2,1.1901057E0,8.05E1,4.595207E-2,-2.2680229E-2,6.604172E-2,1.0626815E-2,-6.022213E-2,-4.941707E-3,1.5476191E0,3.5450695E0,5.4086387E-2,-1.8088145E-2,-6.208376E-2,-2.061056E-3,3.5E0,5.274E3,3.405332E0,-6.1359942E-2,-3.3334192E-2,5.4206964E-2,2.5935847E-2,7.6122E4,3.0022223E-2,2.603295E5,7.9027E4,-2.5986573E-3,5.7490546E-2,4.3811088E0,8.1E1,3.939382E-3,-1.7401212E-3,-5.233844E-2,3.5E0,3.6822758E0,-5.3330917E-2,2.2136044E-2,-2.0747164E-2,-6.988859E-2,5E-1,2.383863E-2,1.454778E0,7.5E0,-5.7011314E-2,1.8900378E-2,-6.397768E-2,2.2157494E-3,-4.3146707E-2,2.8649041E-2],"split_indices":[1913,1783,279,943,1116,1191,1153,1116,0,1650,1056,1628,1641,0,0,1982,933,1628,971,1565,0,1082,112,129,0,0,0,1083,1047,0,937,0,0,1695,1956,0,0,0,0,0,0,1883,1616,0,0,0,0,383,940,279,0,0,0,0,831,0,1065,140,0,0,1616,1075,0,0,0,310,1308,0,0,0,0,666,0,1386,1124,0,0,0,0,0,0],"split_type":[0,0,0,0,0,0,0,0,0,0,0,0,0,0,0,0,0,0,0,0,0,0,0,0,0,0,0,0,0,0,0,0,0,0,0,0,0,0,0,0,0,0,0,0,0,0,0,0,0,0,0,0,0,0,0,0,0,0,0,0,0,0,0,0,0,0,0,0,0,0,0,0,0,0,0,0,0,0,0,0,0],"sum_hessian":[2.572563E2,2.3308224E2,2.4174046E1,2.9613272E1,2.0346896E2,1.8536263E1,5.6377835E0,2.5949469E1,3.663804E0,1.1573938E1,1.9189503E2,1.2740293E1,5.795971E0,3.9092774E0,1.728506E0,2.9870858E0,2.2962381E1,7.57878E0,3.9951584E0,1.8976877E2,2.1262639E0,3.5576286E0,9.182664E0,4.3961E0,1.3998708E0,1.8519537E0,1.1351322E0,1.9241287E1,3.7210956E0,1.1931584E0,6.385622E0,2.4221117E0,1.5730467E0,1.7826744E2,1.1501324E1,1.3818514E0,2.1757772E0,7.3002152E0,1.8824486E0,3.2368436E0,1.1592566E0,3.3143773E0,1.5926909E1,2.101281E0,1.6198148E0,5.223791E0,1.1618309E0,4.8473434E0,1.734201E2,6.3177123E0,5.183611E0,1.6165895E0,1.6977878E0,1.1983564E0,1.4728553E1,1.6435137E0,3.20383E0,1.7155078E2,1.8693273E0,2.162015E0,4.1556973E0,1.3340643E1,1.3879102E0,1.1586341E0,2.0451958E0,1.2100918E1,1.5944986E2,2.2634692E0,1.8922282E0,1.1205857E0,1.2220057E1,1.0032032E1,2.0688856E0,1.5683939E2,2.6104772E0,8.8592005E0,1.1728318E0,1.5570366E2,1.135718E0,1.4885776E0,1.1218996E0],"tree_param":{"num_deleted":"0","num_feature":"2079","num_nodes":"81","size_leaf_vector":"0"}},{"base_weights":[-8.4294546E-1,-2.645209E-1,-1.0189298E0,-6.127267E-1,5.4040533E-1,-1.0876006E0,-2.4802814E-1,5.297103E-1,-8.014028E-1,8.2305884E-1,-6.450563E-1,-6.6541255E-2,-1.1268986E0,-5.830153E-1,8.981893E-1,1.1205328E0,-7.064375E-1,-9.3038917E-1,3.480714E-1,1.0366641E0,-5.1273966E-1,-1.0595992E0,2.5897032E-1,-9.1535586E-1,7.0231444E-1,-1.1418569E0,2.1426146E-1,2.3231503E-1,-1.1087178E0,1.1426145E0,1.19074605E-1,-3.437781E-1,-1.1797448E0,-3.3110452E-1,1.0476117E0,1.329057E0,-1.575892E-2,1.0393018E0,-1.4515729E-1,-1.166089E0,-3.053112E-1,9.963116E-1,-2.9992694E-1,-1.3267976E0,1.6936854E-1,7.3718405E-1,-6.739791E-1,-1.2457718E0,4.884438E-2,7.311627E-1,-8.5913485E-1,-1.195839E0,-4.5798177E-1,-9.168636E-1,6.9360536E-1,-1.0317991E0,4.9268818E-1,-9.807325E-1,4.776878E-1,-1.309354E0,-2.1722302E-2,-6.1130875E-1,-1.238031E0,4.136858E-1,-1.1274896E0,6.967553E-3,-1.2462515E0,-5.819911E-1,-1.3729038E0,-8.9552784E-1,8.0806863E-1,8.3117E-2,-1.2533902E0,-7.834161E-1,1.1532894E0,-8.399001E-1,-2.2024268E-2,-1.1092471E0,4.9415097E-1,-1.263791E0,3.0663678E-2,-1.2774936E0,9.2053145E-2,1.0329596E-2,-1.2737973E0],"categories":[],"categories_nodes":[],"categories_segments":[],"categories_sizes":[],"default_left":[true,true,true,true,true,true,true,true,true,true,true,true,true,true,true,false,false,true,true,true,false,false,false,false,true,true,false,true,true,false,false,true,true,false,false,false,true,false,false,true,true,false,true,false,false,false,true,true,false,false,false,true,true,false,false,false,false,true,false,true,false,true,true,true,false,false,false,true,false,true,false,false,true,false,false,false,false,true,false,true,false,false,false,false,false],"id":12,"left_children":[1,3,5,7,9,11,13,15,17,19,21,23,25,27,29,-1,-1,31,33,35,-1,-1,-1,-1,37,39,-1,41,43,-1,-1,45,47,-1,-1,-1,49,-1,-1,51,53,-1,55,-1,-1,-1,57,59,-1,-1,-1,61,63,-1,-1,-1,-1,65,-1,67,-1,69,71,73,-1,-1,-1,75,-1,77,-1,-1,79,-1,-1,-1,-1,81,-1,83,-1,-1,-1,-1,-1],"loss_changes":[2.5497955E1,1.7260149E1,9.986206E0,9.613487E0,6.8203387E0,7.0510254E0,7.105408E0,5.6444283E0,5.8075733E0,4.981537E0,1.8387984E0,5.631819E0,3.674118E0,6.203026E0,6.7715645E-1,0E0,0E0,4.4984894E0,2.4655285E0,4.2603006E0,0E0,0E0,0E0,0E0,1.458009E0,3.0742798E0,0E0,2.84613E0,2.6236162E0,0E0,0E0,4.5700483E0,1.9359169E0,0E0,0E0,0E0,3.1375957E0,0E0,0E0,2.909317E0,4.3736653E0,0E0,3.0960555E0,0E0,0E0,0E0,3.7411718E0,1.6817093E0,0E0,0E0,0E0,3.1118622E0,5.2735424E0,0E0,0E0,0E0,0E0,2.013043E0,0E0,1.657486E-1,0E0,5.780768E0,3.0531616E0,4.7194257E0,0E0,0E0,0E0,4.743929E-1,0E0,3.791009E0,0E0,0E0,1.9581604E0,0E0,0E0,0E0,0E0,2.0925694E0,0E0,1.8310852E0,0E0,0E0,0E0,0E0,0E0],"parents":[2147483647,0,0,1,1,2,2,3,3,4,4,5,5,6,6,7,7,8,8,9,9,10,10,11,11,12,12,13,13,14,14,17,17,18,18,19,19,24,24,25,25,27,27,28,28,31,31,32,32,36,36,39,39,40,40,42,42,46,46,47,47,51,51,52,52,57,57,59,59,61,61,62,62,63,63,67,67,69,69,72,72,77,77,79,79],"right_children":[2,4,6,8,10,12,14,16,18,20,22,24,26,28,30,-1,-1,32,34,36,-1,-1,-1,-1,38,40,-1,42,44,-1,-1,46,48,-1,-1,-1,50,-1,-1,52,54,-1,56,-1,-1,-1,58,60,-1,-1,-1,62,64,-1,-1,-1,-1,66,-1,68,-1,70,72,74,-1,-1,-1,76,-1,78,-1,-1,80,-1,-1,-1,-1,82,-1,84,-1,-1,-1,-1,-1],"split_conditions":[4.3650794E0,5E-1,5E-1,1.3E1,2.95E1,4.246E3,5.288327E0,3.49485E-1,5.92E2,2.05775E4,2.85E1,2.2600713E0,2.2E1,1.9E1,3.8E1,5.6026638E-2,-3.5321876E-2,4.19E2,8.5E0,2.9295E3,-2.5636984E-2,-5.2979957E-2,1.2948516E-2,-4.5767795E-2,1.3929486E1,1.55E1,1.0713073E-2,3.31E2,1.692617E6,5.7130724E-2,5.9537305E-3,6.9393044E0,9.2866623E-1,-1.6555225E-2,5.2380588E-2,6.645285E-2,5E0,5.1965088E-2,-7.257865E-3,5.5E0,1.6033E4,4.981558E-2,2.793E3,-6.633988E-2,8.468427E-3,3.6859203E-2,7.38375E4,1.0965623E0,2.442219E-3,3.6558136E-2,-4.2956743E-2,1.835E2,1.5E0,-4.584318E-2,3.468027E-2,-5.1589955E-2,2.463441E-2,3.272E3,2.3884391E-2,9.6E1,-1.0861151E-3,4.675E2,1.9E1,9.3165E3,-5.637448E-2,3.4837765E-4,-6.2312573E-2,5E0,-6.8645194E-2,5E-1,4.0403433E-2,4.15585E-3,1.1590316E0,-3.9170805E-2,5.7664473E-2,-4.1995004E-2,-1.1012134E-3,4.8990977E3,2.4707548E-2,5.654E4,1.533184E-3,-6.3874684E-2,4.602657E-3,5.164798E-4,-6.3689865E-2],"split_indices":[978,45,1913,1116,73,1797,1699,1717,943,172,384,827,1024,1208,1874,0,0,110,2037,285,0,0,0,0,1641,372,0,944,126,0,0,1638,1311,0,0,0,989,0,0,1516,1495,0,931,0,0,0,1110,776,0,0,0,109,1207,0,0,0,0,171,0,1083,0,943,1933,1782,0,0,0,1212,0,1922,0,0,1524,0,0,0,0,158,0,102,0,0,0,0,0],"split_type":[0,0,0,0,0,0,0,0,0,0,0,0,0,0,0,0,0,0,0,0,0,0,0,0,0,0,0,0,0,0,0,0,0,0,0,0,0,0,0,0,0,0,0,0,0,0,0,0,0,0,0,0,0,0,0,0,0,0,0,0,0,0,0,0,0,0,0,0,0,0,0,0,0,0,0,0,0,0,0,0,0,0,0,0,0],"sum_hessian":[2.5213431E2,5.940043E1,1.9273387E2,4.163024E1,1.7770187E1,1.7659247E2,1.6141397E1,5.644599E0,3.5985645E1,1.4595775E1,3.1744127E0,6.6445436E0,1.6994794E2,1.2871114E1,3.2702832E0,3.8824792E0,1.7621199E0,3.252635E1,3.4592948E0,1.2776624E1,1.8191513E0,2.0584285E0,1.1159841E0,3.0674946E0,3.577049E0,1.6822034E2,1.7275944E0,5.2644234E0,7.606691E0,2.1341872E0,1.1360959E0,1.0411614E1,2.2114735E1,2.0224261E0,1.4368684E0,9.792997E0,2.983626E0,2.3973963E0,1.1796527E0,1.6310184E2,5.1184907E0,1.8035858E0,3.4608376E0,6.465389E0,1.1413019E0,2.1478329E0,8.263782E0,2.0973585E1,1.1411501E0,1.6528552E0,1.3307706E0,1.5586467E2,7.237171E0,3.2257674E0,1.8927234E0,1.6424723E0,1.8183653E0,6.6428432E0,1.6209378E0,1.987168E1,1.1019058E0,1.1535804E1,1.4432887E2,3.3099184E0,3.9272528E0,1.6137261E0,5.029117E0,2.412889E0,1.745879E1,9.918727E0,1.6170766E0,1.6079286E0,1.4272095E2,1.2413944E0,2.0685241E0,1.30974E0,1.1031492E0,8.7715435E0,1.1471828E0,1.4158986E2,1.1310877E0,7.6383405E0,1.1332036E0,1.1030674E0,1.4048679E2],"tree_param":{"num_deleted":"0","num_feature":"2079","num_nodes":"85","size_leaf_vector":"0"}},{"base_weights":[-8.1868607E-1,-2.5657308E-1,-9.907059E-1,-5.9853166E-1,5.465619E-1,-1.1335607E0,-5.901386E-1,5.118995E-1,-7.816814E-1,8.397936E-1,-4.555446E-1,-1.152797E0,3.7930045E-1,1.7920446E-1,-8.5311747E-1,1.1801336E0,-5.477576E-1,-9.0844786E-1,3.3995965E-1,1.2355709E0,4.433107E-2,4.402004E-1,-1.0332946E0,-1.1954437E0,-4.960744E-1,7.4954665E-1,-8.995282E-1,-9.438991E-1,7.550387E-1,-8.0697453E-1,-2.5607605E-2,-2.0650624E-1,-1.1205992E0,-3.2043797E-1,1.0218469E0,1.3637975E0,1.1723186E-1,-7.1031797E-1,7.298051E-1,-1.213207E0,4.0318962E-2,-7.728131E-1,8.5645103E-1,9.976928E-1,-4.7354028E-1,-2.3384606E-2,-1.1201117E0,6.8301946E-1,-1.0149326E0,4.3410927E-1,-9.464859E-1,2.0987071E-1,-1.2051494E0,-8.942897E-1,-1.8163334E-1,1.4211653E-1,9.1144127E-1,-1.2258257E0,1.199481E-1,6.913318E-1,-1.1249816E0,1.2913871E0,-4.73518E-1,-1.1013412E0,1.5233305E-1,-3.196232E-1,9.957213E-1,-1.2877587E0,1.0667256E-1,-1.2381063E0,9.789197E-2,1.4488984E0,2.3287158E-1,3.7749657E-1,-1.1628227E0,-7.0640457E-1,8.2631785E-1,-1.3225949E0,-3.0046636E-1,-1.2515022E0,-8.864696E-2,-1.8343866E-2,-1.2346969E0,-3.069536E-1,-1.3600241E0,-1.2770557E0,-5.131318E-1,-1.2893194E0,1.338624E-1,-1.3048176E0,-6.1381215E-1,9.258106E-1,-1.0815173E0,-1.3406646E0,1.09302495E-2],"categories":[],"categories_nodes":[],"categories_segments":[],"categories_sizes":[],"default_left":[true,true,true,true,true,true,true,true,true,true,true,true,false,true,true,false,true,true,true,true,true,false,false,true,true,true,true,true,false,false,false,true,true,false,false,false,false,true,true,true,false,true,false,true,false,false,false,false,true,true,false,false,true,false,false,false,false,true,false,false,false,true,false,true,true,false,false,true,false,true,false,false,false,false,true,false,false,true,false,true,false,false,true,false,false,true,true,true,false,false,false,false,false,false,false],"id":13,"left_children":[1,3,5,7,9,11,13,15,17,19,21,23,-1,25,27,-1,29,31,33,35,37,-1,-1,39,41,43,45,47,-1,-1,-1,49,51,-1,-1,-1,-1,53,55,57,-1,59,-1,61,-1,-1,-1,-1,63,65,-1,-1,67,-1,-1,-1,-1,69,-1,-1,-1,71,-1,73,75,-1,-1,77,-1,79,-1,-1,-1,-1,81,-1,-1,83,-1,85,-1,-1,87,-1,-1,89,91,93,-1,-1,-1,-1,-1,-1,-1],"loss_changes":[2.3719315E1,1.6652706E1,1.0174011E1,8.9763565E0,5.752469E0,4.4704437E0,1.0652962E1,5.3020167E0,5.5120983E0,4.506796E0,2.931261E0,3.2466278E0,0E0,9.3167305E0,6.384573E0,0E0,4.1593122E-1,4.705374E0,2.3284655E0,1.222229E0,3.5451207E0,0E0,0E0,2.859253E0,4.430771E0,3.4268703E0,1.0005794E0,4.994503E0,0E0,0E0,0E0,4.6392994E0,3.0912132E0,0E0,0E0,0E0,0E0,1.5773654E-1,2.5040925E-1,2.2707825E0,0E0,5.358883E0,0E0,4.2472343E0,0E0,0E0,0E0,0E0,3.8053055E0,2.6322606E0,0E0,0E0,2.724327E0,0E0,0E0,0E0,0E0,2.1556396E0,0E0,0E0,0E0,8.767834E-1,0E0,3.5030403E0,2.5308418E0,0E0,0E0,3.7762833E-1,0E0,1.79953E0,0E0,0E0,0E0,0E0,2.6589966E0,0E0,0E0,3.9879227E-1,0E0,1.6573029E0,0E0,0E0,2.4644737E0,0E0,0E0,1.368042E0,5.7217493E0,1.9892044E0,0E0,0E0,0E0,0E0,0E0,0E0,0E0],"parents":[2147483647,0,0,1,1,2,2,3,3,4,4,5,5,6,6,7,7,8,8,9,9,10,10,11,11,13,13,14,14,16,16,17,17,18,18,19,19,20,20,23,23,24,24,25,25,26,26,27,27,31,31,32,32,37,37,38,38,39,39,41,41,43,43,48,48,49,49,52,52,57,57,61,61,63,63,64,64,67,67,69,69,74,74,77,77,79,79,82,82,85,85,86,86,87,87],"right_children":[2,4,6,8,10,12,14,16,18,20,22,24,-1,26,28,-1,30,32,34,36,38,-1,-1,40,42,44,46,48,-1,-1,-1,50,52,-1,-1,-1,-1,54,56,58,-1,60,-1,62,-1,-1,-1,-1,64,66,-1,-1,68,-1,-1,-1,-1,70,-1,-1,-1,72,-1,74,76,-1,-1,78,-1,80,-1,-1,-1,-1,82,-1,-1,84,-1,86,-1,-1,88,-1,-1,90,92,94,-1,-1,-1,-1,-1,-1,-1],"split_conditions":[4.3650794E0,3.1E1,2.105E2,1.3E1,3.466793E0,2.2E1,7.994E3,6.033E3,5.92E2,8.05E1,6E0,2.1483E4,1.8965023E-2,5E-1,1.3323209E0,5.900668E-2,2.58708E5,6.45E1,8.5E0,3.8907564E-1,6.566E3,2.2010019E-2,-5.166473E-2,9.464527E0,4E0,1.50515E-1,2.75E1,6.5E0,3.7751935E-2,-4.0348727E-2,-1.2803803E-3,1.349485E0,7.1E1,-1.6021898E-2,5.1092345E-2,6.818988E-2,5.861593E-3,1.935E2,1.1578911E7,3.8010392E0,2.015948E-3,8.020039E4,4.282255E-2,3.4380546E0,-2.3677014E-2,-1.1692303E-3,-5.6005586E-2,3.4150973E-2,2.5E0,1.8333333E0,-4.7324296E-2,1.0493536E-2,1.35E1,-4.4714484E-2,-9.081667E-3,7.105827E-3,4.5572065E-2,5.15E1,5.997405E-3,3.4566592E-2,-5.6249082E-2,3.5E0,-2.3675902E-2,4.5E1,7.5E0,-1.598116E-2,4.9786065E-2,2.8E1,5.333628E-3,3.684466E0,4.894599E-3,7.244492E-2,1.1643579E-2,1.887483E-2,9.5E0,-3.532023E-2,4.1315895E-2,5.8755E3,-1.5023318E-2,6.166667E0,-4.432348E-3,-9.171933E-4,2.14E2,-1.5347681E-2,-6.80012E-2,9.3025E3,2.92E2,3.5E2,6.6931206E-3,-6.524088E-2,-3.0690609E-2,4.6290528E-2,-5.4075867E-2,-6.703323E-2,5.465125E-4],"split_indices":[978,1071,170,1116,1014,1024,1794,1783,943,79,292,1813,0,593,1486,0,103,120,2037,1746,1794,0,0,1733,418,1605,1938,837,0,0,0,1698,1927,0,0,0,0,1045,928,1690,0,1621,0,723,0,0,0,0,1516,1883,0,0,807,0,0,0,0,87,0,0,0,659,0,1084,420,0,0,74,0,1308,0,0,0,0,1116,0,0,1805,0,784,0,0,79,0,0,1494,106,953,0,0,0,0,0,0,0],"split_type":[0,0,0,0,0,0,0,0,0,0,0,0,0,0,0,0,0,0,0,0,0,0,0,0,0,0,0,0,0,0,0,0,0,0,0,0,0,0,0,0,0,0,0,0,0,0,0,0,0,0,0,0,0,0,0,0,0,0,0,0,0,0,0,0,0,0,0,0,0,0,0,0,0,0,0,0,0,0,0,0,0,0,0,0,0,0,0,0,0,0,0,0,0,0,0],"sum_hessian":[2.4693022E2,5.8443768E1,1.8848645E2,4.116942E1,1.7274347E1,1.3758832E2,5.089814E1,5.5747724E0,3.5594646E1,1.348918E1,3.785169E0,1.3609583E2,1.49248E0,1.3047198E1,3.785094E1,3.3490944E0,2.225678E0,3.215105E1,3.443599E0,8.638083E0,4.851096E0,1.577495E0,2.207674E0,1.2702654E2,9.069287E0,8.734367E0,4.312831E0,3.6219383E1,1.6315576E0,1.122793E0,1.102885E0,7.919921E0,2.4231129E1,2.0186443E0,1.4249548E0,7.552628E0,1.0854551E0,2.2917879E0,2.559308E0,1.2524449E2,1.7820541E0,7.8846354E0,1.1846515E0,7.414382E0,1.3199854E0,1.0898858E0,3.2229452E0,1.1548055E0,3.506458E1,4.466516E0,3.4534047E0,1.359293E0,2.2871836E1,1.1871471E0,1.1046407E0,1.025075E0,1.5342331E0,1.24149895E2,1.0945982E0,1.3420355E0,6.5425997E0,6.2824583E0,1.1319236E0,3.2700363E1,2.364215E0,2.0910401E0,2.3754761E0,2.1534111E1,1.337723E0,1.2307278E2,1.0771179E0,5.1476636E0,1.134795E0,1.100067E0,3.1600298E1,1.0184656E0,1.3457493E0,2.0472143E1,1.0619686E0,1.2156725E2,1.5055232E0,1.9414268E0,2.965887E1,1.0546688E0,1.9417475E1,1.16795616E2,4.771633E0,2.8576223E1,1.0826471E0,1.1117478E2,5.6208367E0,1.1730531E0,3.59858E0,2.7460752E1,1.1154721E0],"tree_param":{"num_deleted":"0","num_feature":"2079","num_nodes":"95","size_leaf_vector":"0"}},{"base_weights":[-7.9546773E-1,-2.8436257E-2,-9.147163E-1,-3.7827292E-1,6.83131E-1,-1.0683779E0,-4.7825187E-1,-7.919103E-1,3.581607E-1,1.143315E0,4.8200242E-2,-6.547234E-1,-1.1451132E0,2.7553928E-1,-7.334762E-1,5.1061517E-1,-1.0014353E0,7.7543765E-1,-7.539871E-1,6.5231526E-1,-9.618071E-1,-1.18397705E-1,-1.1040657E0,2.246536E-1,-1.1731517E0,7.762381E-1,-4.8180398E-1,-8.970701E-1,5.436783E-1,-1.133149E0,2.4827859E-1,1.1382481E0,-3.332154E-1,-2.1191482E-1,1.020321E0,-5.756567E-1,6.9122475E-1,-1.2754349E0,1.9669549E-1,-7.17337E-1,9.292156E-1,-1.1905454E0,3.8970068E-1,1.0323162E0,-3.391636E-1,5.725215E-1,-9.9833184E-1,-1.023919E0,7.286276E-2,1.0628359E0,-1.5001433E-1,-1.4511687E-1,-1.2888918E0,5.640363E-1,-9.4290584E-1,1.3790851E0,-5.586573E-1,8.335651E-2,-1.2124838E0,1.3028516E-1,1.3179599E0,4.4737974E-1,-1.0973259E0,6.3716024E-1,-9.0396106E-1,-7.658979E-1,5.158522E-1,1.726633E-1,-1.1697334E0,5.9417877E-3,-1.2284186E0,-1.226545E0,3.6707625E-2,-1.77751E-1,1.0245923E0,-1.242286E0,-4.2038433E-2,-2.266201E-1,-1.3147503E0,9.096616E-1,-8.63872E-1,-1.2541975E0,3.0598318E-2,4.023792E-1,-7.818352E-1,-1.34707E0,-2.6606947E-1,-1.2673395E0,-6.494899E-2],"categories":[],"categories_nodes":[],"categories_segments":[],"categories_sizes":[],"default_left":[true,true,true,true,true,true,true,true,true,false,true,true,true,true,true,false,true,true,false,true,false,true,true,true,true,true,true,true,true,true,false,false,false,false,false,true,true,false,false,false,false,true,false,true,false,false,false,true,true,false,true,false,false,false,true,false,false,false,true,false,false,false,true,true,false,false,false,false,false,false,true,true,true,false,false,true,false,true,true,false,false,true,false,false,false,false,false,false,false],"id":14,"left_children":[1,3,5,7,9,11,13,15,17,-1,19,21,23,25,27,-1,29,31,-1,33,-1,35,37,39,41,43,45,47,49,51,-1,-1,-1,-1,-1,53,55,-1,-1,-1,-1,57,-1,59,-1,-1,-1,61,63,-1,65,-1,-1,-1,67,-1,-1,-1,69,-1,-1,-1,71,73,-1,-1,-1,-1,-1,-1,75,77,79,-1,-1,81,-1,83,85,-1,-1,87,-1,-1,-1,-1,-1,-1,-1],"loss_changes":[2.2167862E1,8.642328E0,1.3570801E1,7.357562E0,3.2924824E0,4.153778E0,1.1068477E1,4.654586E0,4.78027E0,0E0,4.2020025E0,6.2575464E0,5.216919E0,6.0672216E0,9.360847E0,0E0,2.489604E0,3.2219148E0,0E0,1.5716168E0,0E0,5.2863007E0,3.4392757E0,2.940592E0,3.9039612E0,3.041123E0,4.1617503E0,4.752838E0,2.1203237E0,1.7081623E0,0E0,0E0,0E0,0E0,0E0,4.2921653E0,5.258574E0,0E0,0E0,0E0,0E0,3.605667E0,0E0,1.8662395E0,0E0,0E0,0E0,4.129814E0,3.514631E0,0E0,1.7102544E0,0E0,0E0,0E0,2.0160198E0,0E0,0E0,0E0,2.4020233E0,0E0,0E0,0E0,4.790081E0,1.4341805E0,0E0,0E0,0E0,0E0,0E0,0E0,1.9508667E0,2.2684288E0,4.1531377E0,0E0,0E0,1.8625488E0,0E0,1.5602845E0,5.4079056E-1,0E0,0E0,1.7810059E0,0E0,0E0,0E0,0E0,0E0,0E0,0E0],"parents":[2147483647,0,0,1,1,2,2,3,3,4,4,5,5,6,6,7,7,8,8,10,10,11,11,12,12,13,13,14,14,16,16,17,17,19,19,21,21,22,22,23,23,24,24,25,25,26,26,27,27,28,28,29,29,35,35,36,36,41,41,43,43,47,47,48,48,50,50,54,54,58,58,62,62,63,63,70,70,71,71,72,72,75,75,77,77,78,78,81,81],"right_children":[2,4,6,8,10,12,14,16,18,-1,20,22,24,26,28,-1,30,32,-1,34,-1,36,38,40,42,44,46,48,50,52,-1,-1,-1,-1,-1,54,56,-1,-1,-1,-1,58,-1,60,-1,-1,-1,62,64,-1,66,-1,-1,-1,68,-1,-1,-1,70,-1,-1,-1,72,74,-1,-1,-1,-1,-1,-1,76,78,80,-1,-1,82,-1,84,86,-1,-1,88,-1,-1,-1,-1,-1,-1,-1],"split_conditions":[4.104125E3,1.025E2,2.105E2,1.066E3,1.61E2,1.1901057E0,7.994E3,2.695E2,1.05E1,5.716575E-2,2.5E0,1.060287E0,1.435E2,5.255E2,1.1E1,2.553076E-2,4.125377E0,5E-1,-3.7699353E-2,7E0,-4.8090354E-2,2.734846E0,8E0,4.8E1,3.25E1,2.824E3,2.4083332E1,9.52E2,1.8E1,2.3E1,1.2413929E-2,5.6912404E-2,-1.666077E-2,-1.0595742E-2,5.101605E-2,2.155336E0,1.1217E4,-6.377175E-2,9.834775E-3,-3.5866853E-2,4.646078E-2,1.25E1,1.9485034E-2,4.7311845E6,-1.695818E-2,2.8626075E-2,-4.991659E-2,5.4E1,7.9606543E0,5.31418E-2,2.2283334E2,-7.2558434E-3,-6.4444594E-2,2.8201817E-2,6.955E2,6.895425E-2,-2.7932866E-2,4.1678254E-3,1.5E0,6.514258E-3,6.5897994E-2,2.2368988E-2,1.2293764E4,3.25E1,-4.5198053E-2,-3.8294896E-2,2.5792612E-2,8.633166E-3,-5.848667E-2,2.970894E-4,7.594E3,2.5E0,3E0,-8.887551E-3,5.1229615E-2,5E-1,-2.1019217E-3,1.89475E4,2.0595E3,4.548308E-2,-4.31936E-2,5.274E3,1.529916E-3,2.0118961E-2,-3.9091762E-2,-6.73535E-2,-1.3303474E-2,-6.336697E-2,-3.2474496E-3],"split_indices":[1783,933,170,1790,1047,1191,1794,1072,1124,0,2052,1690,167,133,392,0,822,263,0,417,0,822,418,838,1759,174,1872,175,834,1953,0,0,0,0,0,970,130,0,0,0,0,1953,0,165,0,0,0,1075,1711,0,406,0,0,0,908,0,0,0,954,0,0,0,1650,105,0,0,0,0,0,0,937,956,415,0,0,771,0,1195,381,0,0,940,0,0,0,0,0,0,0],"split_type":[0,0,0,0,0,0,0,0,0,0,0,0,0,0,0,0,0,0,0,0,0,0,0,0,0,0,0,0,0,0,0,0,0,0,0,0,0,0,0,0,0,0,0,0,0,0,0,0,0,0,0,0,0,0,0,0,0,0,0,0,0,0,0,0,0,0,0,0,0,0,0,0,0,0,0,0,0,0,0,0,0,0,0,0,0,0,0,0,0],"sum_hessian":[2.4164246E2,3.2679512E1,2.0896294E2,2.222242E1,1.0457091E1,1.5348076E2,5.548219E1,1.4181613E1,8.040808E0,5.598632E0,4.8584595E0,2.5508005E1,1.2797275E2,1.4013751E1,4.1468437E1,1.7660203E0,1.2415592E1,6.067168E0,1.9736397E0,3.261693E0,1.5967664E0,1.2204479E1,1.3303525E1,2.4263408E0,1.2554641E2,8.42128E0,5.5924706E0,3.7023594E1,4.4448423E0,1.1316194E1,1.099399E0,4.551108E0,1.5160599E0,1.1007735E0,2.1609194E0,7.984162E0,4.220318E0,1.17720785E1,1.5314462E0,1.0304757E0,1.395865E0,1.2440012E2,1.1462835E0,6.909468E0,1.5118119E0,1.8032702E0,3.7892003E0,3.269239E1,4.3312054E0,2.2378778E0,2.2069645E0,1.8039169E0,9.512277E0,1.815192E0,6.1689696E0,2.6555111E0,1.5648068E0,2.0586727E0,1.2234145E2,2.0119781E0,4.89749E0,1.3114955E0,3.1380894E1,2.9656901E0,1.3655152E0,1.0684707E0,1.1384938E0,1.0827324E0,5.0862374E0,1.5874476E0,1.20754005E2,2.8097687E1,3.2832086E0,1.1300302E0,1.8356599E0,1.1931226E2,1.4417435E0,2.5669634E0,2.5530722E1,1.6620541E0,1.6211545E0,1.1822064E2,1.0916166E0,1.3325735E0,1.23439E0,2.4491375E1,1.0393473E0,1.16863556E2,1.357086E0],"tree_param":{"num_deleted":"0","num_feature":"2079","num_nodes":"89","size_leaf_vector":"0"}},{"base_weights":[-7.738076E-1,-2.3704173E-1,-9.4013166E-1,-5.6102455E-1,5.1907784E-1,-1.0795629E0,-5.547104E-1,4.8552054E-1,-7.359636E-1,8.057178E-1,-4.5336044E-1,-1.0992051E0,3.8158324E-1,1.6062164E-1,-8.0367285E-1,1.0458369E0,-6.7232394E-1,6.6670823E-1,-8.237874E-1,1.2492331E0,-1.5623803E-2,-1.0583681E0,8.015525E-1,-2.4397214E-1,-1.130282E0,6.963332E-1,-8.617852E-1,-9.5241094E-1,2.3357257E-1,-9.5409715E-1,2.7762386E-1,5.7644844E-1,-9.275014E-1,-7.710235E-1,8.1351507E-1,2.2964418E-1,-1.1469021E0,-6.6844776E-2,1.0356063E0,-1.0564193E-2,-1.0799868E0,-2.6255298E-2,-1.0459864E0,8.456228E-1,-5.3789586E-1,-6.898502E-2,-1.1025999E0,-4.2221767E-1,8.991514E-1,-2.813882E-1,9.8079693E-1,-8.127421E-3,-1.0183154E0,-6.136065E-1,-1.1962602E0,6.3438153E-1,-6.9807047E-1,1.3593938E0,-2.5266554E-2,-8.3144724E-1,7.392195E-1,-1.1288147E0,1.03243105E-1,6.945601E-1,-7.759363E-1,-1.1876334E0,4.0775225E-1,4.4576183E-1,-8.2463115E-1,-1.2101548E0,1.3484208E-1,-1.2281896E0,-2.7814922E-1,-1.2422179E0,-4.450378E-3,-1.1210982E0,3.5187587E-1,-1.2241834E0,7.8312136E-2,-1.2805067E0,-9.914582E-3,-9.631361E-1,8.274939E-1,-1.2919039E0,-9.993467E-2,-1.1967039E0,-2.635115E-1,-1.238935E0,-5.7122078E-2,-1.3192149E0,-2.0628396E-1,-1.3261818E0,-2.9159003E-1,-1.2538811E0,-2.37739E-1],"categories":[],"categories_nodes":[],"categories_segments":[],"categories_sizes":[],"default_left":[true,true,true,true,true,true,true,true,true,true,true,true,false,true,true,false,false,false,true,false,true,false,false,true,true,true,true,true,true,true,true,true,false,true,false,false,true,true,true,false,false,true,true,false,false,true,true,false,false,false,false,false,false,true,true,false,false,false,false,false,false,true,false,false,false,true,false,false,true,true,false,true,true,true,false,true,false,true,false,true,false,false,false,true,false,false,false,true,false,false,false,false,false,false,false],"id":15,"left_children":[1,3,5,7,9,11,13,15,17,19,21,23,-1,25,27,-1,-1,-1,29,-1,31,-1,-1,33,35,37,39,41,43,45,47,49,-1,51,-1,-1,53,55,57,-1,-1,59,61,-1,-1,63,65,-1,-1,-1,-1,-1,-1,67,69,-1,-1,-1,-1,-1,-1,71,-1,-1,-1,73,-1,-1,75,77,-1,79,81,83,-1,85,-1,87,-1,89,-1,-1,-1,91,-1,-1,-1,93,-1,-1,-1,-1,-1,-1,-1],"loss_changes":[2.0955658E1,1.4365894E1,9.11554E0,7.8090143E0,5.3138294E0,4.1988983E0,9.04772E0,4.8757763E0,4.8940353E0,5.1455164E0,4.402771E0,3.1846924E0,0E0,8.138243E0,5.9795246E0,0E0,0E0,0E0,5.092888E0,0E0,3.7318254E0,0E0,0E0,3.8824298E0,3.0967255E0,2.5507798E0,9.5050144E-1,2.8180447E0,3.0438082E0,3.9073315E0,2.2645512E0,1.7353258E0,0E0,8.2393575E-1,0E0,0E0,2.5302734E0,2.1641517E0,2.334145E0,0E0,0E0,3.1038804E0,2.9526405E0,0E0,0E0,3.4650345E0,3.8086376E0,0E0,0E0,0E0,0E0,0E0,0E0,3.1750755E0,2.2429962E0,0E0,0E0,0E0,0E0,0E0,0E0,2.0148163E0,0E0,0E0,0E0,1.5935936E0,0E0,0E0,4.1696024E0,2.1093445E0,0E0,1.5594788E0,3.9843419E0,1.214016E0,0E0,2.60664E-1,0E0,1.8273163E0,0E0,7.109871E-1,0E0,0E0,0E0,3.8804245E-1,0E0,0E0,0E0,1.3303986E0,0E0,0E0,0E0,0E0,0E0,0E0,0E0],"parents":[2147483647,0,0,1,1,2,2,3,3,4,4,5,5,6,6,7,7,8,8,9,9,10,10,11,11,13,13,14,14,18,18,20,20,23,23,24,24,25,25,26,26,27,27,28,28,29,29,30,30,31,31,33,33,36,36,37,37,38,38,41,41,42,42,45,45,46,46,53,53,54,54,61,61,65,65,68,68,69,69,71,71,72,72,73,73,75,75,77,77,79,79,83,83,87,87],"right_children":[2,4,6,8,10,12,14,16,18,20,22,24,-1,26,28,-1,-1,-1,30,-1,32,-1,-1,34,36,38,40,42,44,46,48,50,-1,52,-1,-1,54,56,58,-1,-1,60,62,-1,-1,64,66,-1,-1,-1,-1,-1,-1,68,70,-1,-1,-1,-1,-1,-1,72,-1,-1,-1,74,-1,-1,76,78,-1,80,82,84,-1,86,-1,88,-1,90,-1,-1,-1,92,-1,-1,-1,94,-1,-1,-1,-1,-1,-1,-1],"split_conditions":[4.3650794E0,3.1E1,2.105E2,1.3E1,1.305E2,2.2E1,7.994E3,3.49485E-1,3.5501385E0,1.0573811E1,1.5E0,4.2475E3,1.9079162E-2,5E-1,5E-1,5.2291848E-2,-3.3616196E-2,3.3335414E-2,2.5E0,6.2461656E-2,3.4669414E0,-5.2918404E-2,4.0077623E-2,4.9E1,3.6785E3,2.9707E4,3.075E2,4.9285717E0,6.5E0,9.8E1,1.0338E4,6.901057E-1,-4.637507E-2,3.320561E0,4.0675756E-2,1.1482209E-2,3.55E1,3.4380546E0,1.9E1,-5.2820967E-4,-5.3999342E-2,1.23735E4,5.5E0,4.228114E-2,-2.6894793E-2,4.8E2,2.5E0,-2.1110883E-2,4.495757E-2,-1.406941E-2,4.903985E-2,-4.0637105E-4,-5.0915774E-2,6.955E2,1.7884262E1,3.1719077E-2,-3.4903523E-2,6.7969695E-2,-1.2633278E-3,-4.1572362E-2,3.6960974E-2,2.92E2,5.1621553E-3,3.4728006E-2,-3.8796816E-2,3.5E0,2.0387612E-2,2.2288091E-2,3.8770971E0,5.274E3,6.7421044E-3,1.0485E3,2.1815E3,2.41125E4,-2.2251891E-4,3.1E2,1.7593794E-2,9.65E1,3.915607E-3,4.283685E0,-4.957291E-4,-4.8156805E-2,4.1374695E-2,7.5E0,-4.9967333E-3,-5.9835196E-2,-1.3175576E-2,9.9886E4,-2.856104E-3,-6.596075E-2,-1.0314198E-2,-6.630909E-2,-1.4579502E-2,-6.269406E-2,-1.188695E-2],"split_indices":[978,1071,170,1116,76,1024,1794,1717,1616,1684,61,1797,0,593,355,0,0,0,2035,0,33,0,0,1942,64,975,1079,1875,1936,1083,1797,31,0,33,0,0,84,1146,1875,0,0,1794,592,0,0,110,709,0,0,0,0,0,0,908,1668,0,0,0,0,0,0,1080,0,0,0,303,0,0,1617,940,0,600,187,1021,0,953,0,1050,0,33,0,0,0,787,0,0,0,1195,0,0,0,0,0,0,0],"split_type":[0,0,0,0,0,0,0,0,0,0,0,0,0,0,0,0,0,0,0,0,0,0,0,0,0,0,0,0,0,0,0,0,0,0,0,0,0,0,0,0,0,0,0,0,0,0,0,0,0,0,0,0,0,0,0,0,0,0,0,0,0,0,0,0,0,0,0,0,0,0,0,0,0,0,0,0,0,0,0,0,0,0,0,0,0,0,0,0,0,0,0,0,0,0,0],"sum_hessian":[2.3622198E2,5.645477E1,1.7976723E2,3.970147E1,1.67533E1,1.306881E2,4.907912E1,5.4317164E0,3.4269753E1,1.3071682E1,3.6816177E0,1.2919899E2,1.4891143E0,1.2762907E1,3.6316216E1,3.7255478E0,1.7061684E0,1.6308773E0,3.2638874E1,8.149874E0,4.921808E0,2.5897098E0,1.0919079E0,4.8404784E0,1.24358505E2,8.5840435E0,4.178863E0,3.1833208E1,4.4830055E0,2.9305449E1,3.3334255E0,3.2072318E0,1.7145761E0,3.4112186E0,1.4292597E0,1.3467134E0,1.23011795E2,2.888802E0,5.6952415E0,1.0665574E0,3.1123056E0,3.0386822E0,2.8794527E1,2.446185E0,2.0368202E0,4.4208198E0,2.4884628E1,1.7187669E0,1.6146585E0,1.1248744E0,2.0823574E0,1.0879027E0,2.3233159E0,1.1558495E1,1.114533E2,1.3661507E0,1.5226513E0,4.1478806E0,1.547361E0,1.4389191E0,1.5997633E0,2.687531E1,1.9192151E0,2.1337662E0,2.2870536E0,2.3760569E1,1.1240612E0,1.7352029E0,9.823292E0,1.1039185E2,1.061448E0,2.3666758E1,3.2085543E0,2.2665052E1,1.0955145E0,7.8837643E0,1.9395269E0,1.0925221E2,1.1396395E0,2.2643291E1,1.0234662E0,2.06074E0,1.1478142E0,2.1594759E1,1.0702933E0,6.8816395E0,1.0021249E0,1.078277E2,1.4245129E0,2.1635614E1,1.0076758E0,2.0564314E1,1.0304465E0,1.0599302E2,1.8346782E0],"tree_param":{"num_deleted":"0","num_feature":"2079","num_nodes":"95","size_leaf_vector":"0"}},{"base_weights":[-7.533633E-1,-2.28899E-1,-9.167586E-1,-5.253802E-1,6.044229E-1,-9.8306614E-1,-2.0191917E-1,-5.967292E-2,-9.7230476E-1,9.403053E-1,-3.107656E-1,-1.9258467E-2,-1.0224735E0,-5.20982E-1,8.5156983E-1,8.337739E-1,-3.6286634E-1,-1.119262E0,2.0905222E-1,1.1933191E0,-1.334642E-1,-8.9582133E-1,8.475966E-1,-9.797817E-1,5.9742826E-1,-1.0365332E0,3.7734607E-1,2.2903164E-1,-1.0185304E0,1.0791849E0,1.0607923E-1,1.1178006E0,-2.2293901E-1,1.038735E-1,-9.321203E-1,-9.949674E-2,-1.2119583E0,-4.5461974E-1,7.430164E-1,-4.7086057E-1,1.0778402E0,-5.1727295E-1,-1.0759175E0,9.1248184E-1,-2.4649818E-1,-1.2274338E0,1.6511777E-1,-3.7810987E-1,8.24777E-1,-1.1636726E0,1.5963267E-1,-1.292145E0,3.8909245E-2,-9.884436E-1,2.8750598E-1,-3.0014655E-1,-1.1070523E0,-8.5191727E-1,8.007208E-1,-9.076825E-1,9.6069735E-1,1.1303595E0,-5.2906565E-2,-1.1738051E0,1.3578744E-1,-5.9911674E-1,9.6222144E-1,6.123847E-1,-1.02088E0,-1.1230824E0,4.238864E-2,-7.912467E-2,-1.0991892E0,4.6441905E-2,1.3250335E0,-2.947402E-1,1.1725266E0,-1.1347737E0,2.0664236E-1,-1.1651968E0,-4.4646734E-1,-1.1832565E0,2.0172179E-1,9.4415414E-1,-8.5565096E-1],"categories":[],"categories_nodes":[],"categories_segments":[],"categories_sizes":[],"default_left":[true,true,true,true,true,true,true,true,true,true,true,true,true,true,true,true,true,true,true,false,false,false,false,false,true,true,false,true,true,false,false,false,false,true,true,false,true,false,false,false,false,true,true,false,true,false,false,true,true,false,false,false,false,true,true,true,true,false,false,true,false,false,false,false,false,false,true,true,false,true,false,false,false,false,false,false,false,true,false,true,true,false,false,false,false],"id":16,"left_children":[1,3,5,7,9,11,13,15,17,19,21,23,25,27,29,31,33,35,37,-1,-1,-1,-1,-1,39,41,-1,43,45,-1,-1,-1,-1,47,49,-1,51,-1,-1,-1,-1,53,55,-1,57,-1,-1,59,61,-1,-1,-1,-1,63,65,67,69,-1,-1,71,-1,-1,-1,-1,-1,-1,73,75,-1,77,-1,-1,-1,-1,-1,-1,-1,79,-1,81,83,-1,-1,-1,-1],"loss_changes":[1.9653793E1,1.4250406E1,8.1627655E0,8.710729E0,4.9842257E0,6.1016693E0,5.899793E0,6.1799335E0,3.9549618E0,3.2602587E0,4.045866E0,4.939104E0,3.4381409E0,5.114072E0,5.902083E-1,1.9901524E0,4.586042E0,1.6961765E0,1.4767065E0,0E0,0E0,0E0,0E0,0E0,3.1236014E0,2.5835876E0,0E0,2.1855512E0,2.192357E0,0E0,0E0,0E0,0E0,3.8503594E0,2.1354432E0,0E0,1.808424E0,0E0,0E0,0E0,0E0,5.1191792E0,3.0925598E0,0E0,3.4367676E0,0E0,0E0,5.6853347E0,1.2385304E0,0E0,0E0,0E0,0E0,1.882287E0,3.856638E0,5.12588E0,2.5526123E0,0E0,0E0,7.665162E-1,0E0,0E0,0E0,0E0,0E0,0E0,1.1005018E0,2.1976037E0,0E0,2.3195496E0,0E0,0E0,0E0,0E0,0E0,0E0,0E0,2.2670135E0,0E0,3.3700714E0,4.9362864E0,0E0,0E0,0E0,0E0],"parents":[2147483647,0,0,1,1,2,2,3,3,4,4,5,5,6,6,7,7,8,8,9,9,10,10,11,11,12,12,13,13,14,14,15,15,16,16,17,17,18,18,24,24,25,25,27,27,28,28,33,33,34,34,36,36,41,41,42,42,44,44,47,47,48,48,53,53,54,54,55,55,56,56,59,59,66,66,67,67,69,69,77,77,79,79,80,80],"right_children":[2,4,6,8,10,12,14,16,18,20,22,24,26,28,30,32,34,36,38,-1,-1,-1,-1,-1,40,42,-1,44,46,-1,-1,-1,-1,48,50,-1,52,-1,-1,-1,-1,54,56,-1,58,-1,-1,60,62,-1,-1,-1,-1,64,66,68,70,-1,-1,72,-1,-1,-1,-1,-1,-1,74,76,-1,78,-1,-1,-1,-1,-1,-1,-1,80,-1,82,84,-1,-1,-1,-1],"split_conditions":[4.3650794E0,1.2E2,5E-1,3.8E1,3.466793E0,4.246E3,1.55E1,1.45E1,9.7055E3,3.984E3,1.5E0,2.15E1,1.7159286E1,1.9E1,7.7638E6,3.579E3,3.0051498E0,1.3095238E0,9.5E0,5.9665956E-2,-6.6732103E-3,-4.479107E-2,4.237983E-2,-4.8989084E-2,2.2367039E1,1.835E2,1.8867305E-2,1.5E0,1.301E3,5.3959247E-2,5.3039617E-3,5.589003E-2,-1.1146951E-2,2.43185E4,9.687843E0,-4.974837E-3,9.3E1,-2.2730988E-2,3.7150823E-2,-2.3543028E-2,5.3892013E-2,1.5E0,2.775E0,4.5624092E-2,2.1E1,-6.137169E-2,8.255889E-3,1.1825E4,1.5877513E4,-5.818363E-2,7.981634E-3,-6.4607255E-2,1.9454623E-3,1.3E1,1.95E1,6.2635E3,5.5E0,-4.2595863E-2,4.003604E-2,4.13E2,4.803487E-2,5.6517977E-2,-2.6453284E-3,-5.8690257E-2,6.7893723E-3,-2.9955838E-2,3.289687E0,5.224E4,-5.1044E-2,5.3455E3,2.119432E-3,-3.9562336E-3,-5.4959457E-2,2.3220952E-3,6.625168E-2,-1.473701E-2,5.862633E-2,5.3959066E-1,1.0332118E-2,2.44845E4,2.55E1,-5.9162825E-2,1.0086089E-2,4.720771E-2,-4.278255E-2],"split_indices":[978,933,1913,1078,279,1797,1972,1116,1818,146,61,837,1630,1208,165,909,399,978,1872,0,0,0,0,0,99,109,0,991,1,0,0,0,0,1805,1566,0,999,0,0,0,0,994,1198,0,384,0,0,378,1705,0,0,0,0,997,1202,1815,359,0,0,1,0,0,0,0,0,0,1105,403,0,81,0,0,0,0,0,0,0,1489,0,345,2028,0,0,0,0],"split_type":[0,0,0,0,0,0,0,0,0,0,0,0,0,0,0,0,0,0,0,0,0,0,0,0,0,0,0,0,0,0,0,0,0,0,0,0,0,0,0,0,0,0,0,0,0,0,0,0,0,0,0,0,0,0,0,0,0,0,0,0,0,0,0,0,0,0,0,0,0,0,0,0,0,0,0,0,0,0,0,0,0,0,0,0,0],"sum_hessian":[2.3079468E2,5.5393642E1,1.7540103E2,4.112989E1,1.4263751E1,1.6016876E2,1.5232268E1,2.0696798E1,2.0433092E1,1.0414202E1,3.8495493E0,6.3500695E0,1.538187E2,1.20793495E1,3.1529188E0,4.8005676E0,1.5896231E1,1.8219238E1,2.2138553E0,8.338139E0,2.0760632E0,2.7083082E0,1.1412411E0,2.2526543E0,4.0974154E0,1.5254605E2,1.2726443E0,5.032677E0,7.046673E0,2.072516E0,1.0804027E0,3.738037E0,1.0625304E0,9.183813E0,6.7124176E0,1.6908886E0,1.6528349E1,1.0532948E0,1.1605604E0,1.2771986E0,2.8202167E0,1.1750912E1,1.4079514E2,1.6878945E0,3.3447826E0,5.958124E0,1.0885487E0,5.788937E0,3.3948758E0,5.483529E0,1.2288888E0,1.5501619E1,1.0267293E0,7.267702E0,4.48321E0,5.843189E0,1.3495195E2,2.2376475E0,1.1071349E0,4.378872E0,1.4100654E0,2.3045962E0,1.0902797E0,6.201167E0,1.0665346E0,1.9857899E0,2.49742E0,2.6448438E0,3.198345E0,1.3311841E2,1.833534E0,1.0873963E0,3.2914755E0,1.0287478E0,1.4686722E0,1.1905739E0,1.4542699E0,1.3210352E2,1.0148907E0,1.258482E2,6.2553215E0,1.2433979E2,1.5084107E0,1.1249022E0,5.1304193E0],"tree_param":{"num_deleted":"0","num_feature":"2079","num_nodes":"85","size_leaf_vector":"0"}},{"base_weights":[-7.329495E-1,-1.7104799E-2,-8.463176E-1,4.134335E-1,-5.244614E-1,-9.9685824E-1,-4.4894138E-1,6.128161E-1,-7.380289E-1,3.5054597E-1,-1.0451424E0,-1.0163748E0,7.078298E-1,2.1923669E-1,-6.995877E-1,8.101423E-1,-2.9140165E-1,-5.976413E-1,8.014485E-1,-1.0735403E-1,-1.2090156E0,-8.0025774E-1,-1.1770235E0,6.4021444E-1,-3.5880917E-1,-8.9583945E-1,4.5817697E-1,1.0225171E0,-7.784894E-2,-8.624283E-1,5.260011E-1,3.314093E-2,1.0501052E0,-8.7728965E-1,5.0427854E-1,-1.1956482E0,1.2379412E-1,8.181703E-1,-3.9362243E-1,4.7071332E-1,-8.366755E-1,1.4635432E-1,-1.0032816E0,-3.5616618E-1,9.504632E-1,-7.764346E-2,1.1853541E0,6.1126786E-1,-7.565402E-1,7.160421E-2,-1.0111359E0,1.1941794E0,-7.0875525E-1,-1.214727E0,5.4950282E-2,1.0393468E0,-2.2061309E-1,-2.206874E-1,9.3110096E-1,-2.4129484E-2,-1.0408695E0,1.0540806E0,-8.368953E-1,-1.0573447E0,2.7548516E-1,2.3549081E-1,-7.81167E-1,1.2713748E0,2.3551628E-1,-6.297622E-1,8.6288434E-1,-1.0791451E0,2.2189946E-1,-1.2372646E0,-1.0530894E-1,1.25098E0,3.5418283E-2,2.0845789E-1,-1.1123868E0,-1.0216837E0,4.2174318E-1,-1.4935657E-1,1.2909395E0,-1.1395253E0,1.05182536E-1,9.5235234E-1,-7.132742E-1,-1.2604306E0,-1.7293164E-1,-1.2034037E0,-1.3205238E-1,2.7832652E-2,-1.1775151E0,8.831986E-1,-7.2777E-1,-2.48983E-1,-1.2729719E0,-1.2565627E0,-6.803741E-2,7.371063E-1,-8.1260985E-1,3.860715E-2,-1.2068007E0,-2.9016745E-1,-1.2853131E0,-1.2810366E0,-3.2856157E-1],"categories":[],"categories_nodes":[],"categories_segments":[],"categories_sizes":[],"default_left":[true,true,true,true,true,true,true,true,false,true,true,true,false,true,true,true,true,false,true,false,false,true,true,true,true,true,true,true,true,false,false,false,false,true,true,true,false,true,false,true,true,true,true,true,false,false,true,false,false,true,true,false,false,true,false,true,false,false,false,false,false,false,false,true,false,false,false,false,false,true,true,true,true,true,false,false,false,false,true,false,false,false,false,true,true,false,false,true,false,true,true,false,true,false,false,false,true,true,false,false,false,false,false,false,false,false,false],"id":17,"left_children":[1,3,5,7,9,11,13,15,-1,17,19,21,-1,23,